{"learner":{"attributes":{"scikit_learn":"{\"_estimator_type\": \"classifier\"}"},"feature_names":[],"feature_types":[],"gradient_booster":{"model":{"cats":{"enc":[],"feature_segments":[],"sorted_idx":[]},"gbtree_model_param":{"num_parallel_tree":"1","num_trees":"200"},"iteration_indptr":[0,1,2,3,4,5,6,7,8,9,10,11,12,13,14,15,16,17,18,19,20,21,22,23,24,25,26,27,28,29,30,31,32,33,34,35,36,37,38,39,40,41,42,43,44,45,46,47,48,49,50,51,52,53,54,55,56,57,58,59,60,61,62,63,64,65,66,67,68,69,70,71,72,73,74,75,76,77,78,79,80,81,82,83,84,85,86,87,88,89,90,91,92,93,94,95,96,97,98,99,100,101,102,103,104,105,106,107,108,109,110,111,112,113,114,115,116,117,118,119,120,121,122,123,124,125,126,127,128,129,130,131,132,133,134,135,136,137,138,139,140,141,142,143,144,145,146,147,148,149,150,151,152,153,154,155,156,157,158,159,160,161,162,163,164,165,166,167,168,169,170,171,172,173,174,175,176,177,178,179,180,181,182,183,184,185,186,187,188,189,190,191,192,193,194,195,196,197,198,199,200],"tree_info":[0,0,0,0,0,0,0,0,0,0,0,0,0,0,0,0,0,0,0,0,0,0,0,0,0,0,0,0,0,0,0,0,0,0,0,0,0,0,0,0,0,0,0,0,0,0,0,0,0,0,0,0,0,0,0,0,0,0,0,0,0,0,0,0,0,0,0,0,0,0,0,0,0,0,0,0,0,0,0,0,0,0,0,0,0,0,0,0,0,0,0,0,0,0,0,0,0,0,0,0,0,0,0,0,0,0,0,0,0,0,0,0,0,0,0,0,0,0,0,0,0,0,0,0,0,0,0,0,0,0,0,0,0,0,0,0,0,0,0,0,0,0,0,0,0,0,0,0,0,0,0,0,0,0,0,0,0,0,0,0,0,0,0,0,0,0,0,0,0,0,0,0,0,0,0,0,0,0,0,0,0,0,0,0,0,0,0,0,0,0,0,0,0,0,0,0,0,0,0,0],"trees":[{"base_weights":[-2.2768124E-3,-8.299881E-1,8.1204295E-1,-9.0412796E-1,1.1270276E0,-1.2850292E0,1.7145935E0,-3.5454682E-1,-1.0424021E0,6.0251915E-1,1.903163E0,1.516229E0,-1.4836537E0,2.4780493E0,9.2527443E-1,-8.284903E-1,3.2610473E-1,-1.0719132E0,1.0359889E-1,1.3671356E0,-3.5466963E-1,1.6838348E-2,1.0526562E-1,1.2047589E-1,3.803722E-1,1.0316977E-1,-1.5018334E0,2.5799425E0,2.024751E0,3.899862E-1,1.3442402E-1,-5.053659E-2,2.624259E-2,9.468028E-2,-1.0127459E-2,-5.4467034E-2,9.8215766E-2,8.194073E-2,-1.9185053E-2,-4.8375502E-2,3.450305E-2,-5.2772697E-2,1.02662675E-1,-1.9185053E-2,2.7113715E-2,-4.7458623E-2,-7.5942986E-2,1.2966512E-1,3.9643305E-3,-4.8788257E-2,1.06907524E-1,6.257921E-2,-7.675565E-2],"categories":[],"categories_nodes":[],"categories_segments":[],"categories_sizes":[],"default_left":[0,0,0,0,0,0,0,0,0,0,0,0,0,0,0,0,0,0,0,0,0,0,0,0,0,0,0,0,0,0,0,0,0,0,0,0,0,0,0,0,0,0,0,0,0,0,0,0,0,0,0,0,0],"id":0,"left_children":[1,3,5,7,9,11,13,15,17,19,21,23,25,27,29,31,33,35,-1,37,39,-1,-1,-1,41,43,45,47,49,51,-1,-1,-1,-1,-1,-1,-1,-1,-1,-1,-1,-1,-1,-1,-1,-1,-1,-1,-1,-1,-1,-1,-1],"loss_changes":[9.967198E2,1.0742294E2,1.4130585E3,5.3367798E1,9.931591E0,1.2736005E2,3.120022E2,4.6615387E1,5.410089E1,1.3440909E1,2.6192894E0,1.4691383E1,6.226776E0,6.994385E0,2.4248668E2,2.1488464E1,4.9846725E1,3.1762695E1,0E0,5.407879E0,6.209184E0,0E0,0E0,0E0,2.1285105E1,9.177954E-1,5.169983E-1,6.8878174E0,2.0186234E1,3.3217462E2,0E0,0E0,0E0,0E0,0E0,0E0,0E0,0E0,0E0,0E0,0E0,0E0,0E0,0E0,0E0,0E0,0E0,0E0,0E0,0E0,0E0,0E0,0E0],"parents":[2147483647,0,0,1,1,2,2,3,3,4,4,5,5,6,6,7,7,8,8,9,9,10,10,11,11,12,12,13,13,14,14,15,15,16,16,17,17,19,19,20,20,24,24,25,25,26,26,27,27,28,28,29,29],"right_children":[2,4,6,8,10,12,14,16,18,20,22,24,26,28,30,32,34,36,-1,38,40,-1,-1,-1,42,44,46,48,50,52,-1,-1,-1,-1,-1,-1,-1,-1,-1,-1,-1,-1,-1,-1,-1,-1,-1,-1,-1,-1,-1,-1,-1],"split_conditions":[-3.2126504E-1,-7.737513E-2,-1.065613E0,-3.0927753E-1,-2.8462005E-1,-1.5824118E-1,-2.0022798E-1,-1.5824118E-1,3.0759943E-1,7.489395E-1,-6.310465E-2,-1.4082138E-1,-7.637721E-2,-1.2970021E-1,3.3020413E0,-4.1242653E-1,-6.030986E-1,7.187513E-1,1.0359889E-1,9.1389513E-1,-3.932052E-2,1.6838348E-2,1.0526562E-1,1.2047589E-1,4.4456083E-1,-1.1174039E-1,-1.439707E-1,5.762693E-1,-6.809461E-1,-7.5933464E-2,1.3442402E-1,-5.053659E-2,2.624259E-2,9.468028E-2,-1.0127459E-2,-5.4467034E-2,9.8215766E-2,8.194073E-2,-1.9185053E-2,-4.8375502E-2,3.450305E-2,-5.2772697E-2,1.02662675E-1,-1.9185053E-2,2.7113715E-2,-4.7458623E-2,-7.5942986E-2,1.2966512E-1,3.9643305E-3,-4.8788257E-2,1.06907524E-1,6.257921E-2,-7.675565E-2],"split_indices":[6,4,8,18,0,4,0,4,23,13,4,6,6,4,1,13,13,25,0,14,4,0,0,0,0,1,4,14,7,9,0,0,0,0,0,0,0,0,0,0,0,0,0,0,0,0,0,0,0,0,0,0,0],"split_type":[0,0,0,0,0,0,0,0,0,0,0,0,0,0,0,0,0,0,0,0,0,0,0,0,0,0,0,0,0,0,0,0,0,0,0,0,0,0,0,0,0,0,0,0,0,0,0,0,0,0,0,0,0],"sum_hessian":[1.4767653E3,7.323512E2,7.44414E2,7.061378E2,2.6213394E1,2.2385774E2,5.205563E2,1.4266582E2,5.63472E2,1.670234E1,9.511055E0,1.438257E1,2.0947517E2,2.6352582E2,2.5703046E2,8.3975655E1,5.8690166E1,5.5883246E2,4.639539E0,9.047101E0,7.655239E0,1.3918617E0,8.119193E0,7.423262E0,6.959308E0,2.3197694E0,2.0715541E2,2.11331E2,5.2194813E1,1.981083E2,5.8922142E1,7.423262E1,9.7430315E0,1.4150594E1,4.4539574E1,5.562807E2,2.5517464E0,7.887216E0,1.1598847E0,4.8715158E0,2.7837234E0,3.943608E0,3.0157003E0,1.1598847E0,1.1598847E0,7.887216E0,1.9926819E2,2.1017111E2,1.1598847E0,1.6238385E0,5.0570972E1,1.3709837E2,6.1009937E1],"tree_param":{"num_deleted":"0","num_feature":"39","num_nodes":"53","size_leaf_vector":"1"}},{"base_weights":[-7.081346E-3,1.2647105E0,-6.3832474E-1,2.023238E0,-9.9843925E-1,-8.4039515E-1,2.2918127E0,2.3009214E0,1.243002E0,-1.301423E0,9.0633184E-1,-9.155309E-1,1.7856649E0,1.23757E-1,-5.7305165E-2,1.9527881E0,1.2416482E-1,3.9059663E-1,2.4231215E0,5.1231827E-3,-1.3174204E0,1.06917515E-1,-1.1200843E0,-9.4852185E-1,1.1905219E-1,1.2028263E-1,6.364052E-1,1.11376844E-1,7.001318E-2,-4.5820836E-2,9.9214196E-2,2.7547134E-2,1.23152256E-1,-6.751334E-2,-3.9023537E-2,-2.2802966E-2,-6.510379E-2,-4.046832E-2,-7.614698E-2,-1.5768679E-2,7.842497E-2],"categories":[],"categories_nodes":[],"categories_segments":[],"categories_sizes":[],"default_left":[0,0,0,0,0,0,0,0,0,0,0,0,0,0,0,0,0,0,0,0,0,0,0,0,0,0,0,0,0,0,0,0,0,0,0,0,0,0,0,0,0],"id":1,"left_children":[1,3,5,7,9,11,13,15,17,19,21,23,25,-1,-1,27,-1,29,31,-1,33,-1,35,37,-1,-1,39,-1,-1,-1,-1,-1,-1,-1,-1,-1,-1,-1,-1,-1,-1],"loss_changes":[1.1967924E3,8.50892E2,5.9180457E2,7.7453E1,7.320384E1,1.8567041E2,4.3514404E1,1.2433838E1,9.911818E1,2.5623932E0,4.6626175E1,1.0094824E2,1.7196487E1,0E0,0E0,1.1797516E1,0E0,1.2460617E2,1.7467651E0,0E0,8.321991E-1,0E0,2.9499817E-1,7.0640076E1,0E0,0E0,9.871788E0,0E0,0E0,0E0,0E0,0E0,0E0,0E0,0E0,0E0,0E0,0E0,0E0,0E0,0E0],"parents":[2147483647,0,0,1,1,2,2,3,3,4,4,5,5,6,6,7,7,8,8,9,9,10,10,11,11,12,12,15,15,17,17,18,18,20,20,22,22,23,23,26,26],"right_children":[2,4,6,8,10,12,14,16,18,20,22,24,26,-1,-1,28,-1,30,32,-1,34,-1,36,38,-1,-1,40,-1,-1,-1,-1,-1,-1,-1,-1,-1,-1,-1,-1,-1,-1],"split_conditions":[-7.967835E-1,-5.638727E-2,3.6271634E0,-1.440436E-1,-6.8898386E-1,2.713959E0,1.4368954E0,-1.1174039E-1,2.3397684E0,-7.02416E-1,-6.5778404E-1,1.1594997E1,1.7289671E0,1.23757E-1,-5.7305165E-2,-2.4310628E-1,1.2416482E-1,1.271802E0,-1.1477239E0,5.1231827E-3,2.6045E0,1.06917515E-1,-6.423277E-1,-2.2683434E-1,1.1905219E-1,1.2028263E-1,4.7772937E0,1.11376844E-1,7.001318E-2,-4.5820836E-2,9.9214196E-2,2.7547134E-2,1.23152256E-1,-6.751334E-2,-3.9023537E-2,-2.2802966E-2,-6.510379E-2,-4.046832E-2,-7.614698E-2,-1.5768679E-2,7.842497E-2],"split_indices":[15,0,1,6,8,9,0,1,5,7,7,22,13,0,0,2,0,21,8,0,6,0,7,0,0,0,7,0,0,0,0,0,0,0,0,0,0,0,0,0,0],"split_type":[0,0,0,0,0,0,0,0,0,0,0,0,0,0,0,0,0,0,0,0,0,0,0,0,0,0,0,0,0,0,0,0,0,0,0,0,0,0,0,0,0],"sum_hessian":[1.4887482E3,4.9349005E2,9.952582E2,3.6968933E2,1.2380072E2,9.317175E2,6.3540638E1,2.7121558E2,9.8473755E1,1.07084076E2,1.671664E1,9.064343E2,2.5283173E1,6.058973E1,2.9509077E0,9.726164E1,1.7395393E2,5.7948376E1,4.052538E1,1.1455916E0,1.05938484E2,1.0361705E1,6.354936E0,8.981582E2,8.276168E0,1.5713201E1,9.569973E0,6.2934975E1,3.432667E1,3.207117E1,2.5877207E1,1.1551616E0,3.937022E1,9.8404205E1,7.5342855E0,2.1212306E0,4.2337055E0,7.249457E2,1.7321251E2,5.062356E0,4.5076165E0],"tree_param":{"num_deleted":"0","num_feature":"39","num_nodes":"41","size_leaf_vector":"1"}},{"base_weights":[1.0185545E-2,1.2492301E0,-5.8528847E-1,1.9601088E0,-7.477557E-1,-7.804782E-1,2.0565884E0,1.5605899E0,2.2810566E0,-1.1991428E0,6.951209E-1,-8.5174686E-1,1.597483E0,1.15159266E-1,-6.145246E-2,1.2594234E0,1.1114573E-1,1.153286E-1,1.1503326E0,1.5113334E-2,-1.3623351E0,1.8651812E0,-5.872651E-1,-7.040232E-1,-1.479179E0,1.12758934E-1,4.269262E-1,9.085033E-2,-3.3461723E-2,8.969502E-2,-4.39826E-2,-1.9322574E-2,8.2504444E-2,1.4090245E-2,-6.967785E-2,1.02976516E-1,-5.6693684E-3,4.9007285E-2,-4.707938E-2,-3.877924E-2,6.1953753E-2,4.435295E-3,-7.451462E-2,-4.922571E-2,5.962303E-2],"categories":[],"categories_nodes":[],"categories_segments":[],"categories_sizes":[],"default_left":[0,0,0,0,0,0,0,0,0,0,0,0,0,0,0,0,0,0,0,0,0,0,0,0,0,0,0,0,0,0,0,0,0,0,0,0,0,0,0,0,0,0,0,0,0],"id":2,"left_children":[1,3,5,7,9,11,13,15,17,19,21,23,25,-1,-1,27,-1,-1,29,31,33,35,37,39,41,-1,43,-1,-1,-1,-1,-1,-1,-1,-1,-1,-1,-1,-1,-1,-1,-1,-1,-1,-1],"loss_changes":[1.0887384E3,6.814244E2,5.155461E2,4.1768677E1,8.320027E1,1.5876959E2,5.8610504E1,2.924408E1,2.9399414E0,1.9181824E1,4.726299E1,8.260211E1,2.0112076E1,0E0,0E0,1.2245232E2,0E0,0E0,9.773276E0,8.808528E0,4.768982E0,6.5123672E0,9.497963E0,1.0279678E2,3.113037E0,0E0,1.3147352E1,0E0,0E0,0E0,0E0,0E0,0E0,0E0,0E0,0E0,0E0,0E0,0E0,0E0,0E0,0E0,0E0,0E0,0E0],"parents":[2147483647,0,0,1,1,2,2,3,3,4,4,5,5,6,6,7,7,8,8,9,9,10,10,11,11,12,12,15,15,18,18,19,19,20,20,21,21,22,22,23,23,24,24,26,26],"right_children":[2,4,6,8,10,12,14,16,18,20,22,24,26,-1,-1,28,-1,-1,30,32,34,36,38,40,42,-1,44,-1,-1,-1,-1,-1,-1,-1,-1,-1,-1,-1,-1,-1,-1,-1,-1,-1,-1],"split_conditions":[-9.479445E-1,-8.590371E-2,3.6271634E0,-1.1174039E-1,8.2334816E-1,2.713959E0,1.4368954E0,2.3397684E0,-1.229032E-1,-1.439707E-1,3.2993514E-2,-1.6156559E-1,2.3449845E0,1.15159266E-1,-6.145246E-2,-1.4726579E-1,1.1114573E-1,1.153286E-1,-1.7673564E-1,3.6889896E-1,-8.6043835E-2,-2.5050042E-2,-1.2970021E-1,-1.1174039E-1,-5.2945614E-1,1.12758934E-1,8.895045E-1,9.085033E-2,-3.3461723E-2,8.969502E-2,-4.39826E-2,-1.9322574E-2,8.2504444E-2,1.4090245E-2,-6.967785E-2,1.02976516E-1,-5.6693684E-3,4.9007285E-2,-4.707938E-2,-3.877924E-2,6.1953753E-2,4.435295E-3,-7.451462E-2,-4.922571E-2,5.962303E-2],"split_indices":[15,0,1,1,3,9,0,5,0,4,0,0,13,0,0,6,0,0,2,0,6,4,4,1,18,0,14,0,0,0,0,0,0,0,0,0,0,0,0,0,0,0,0,0,0],"split_type":[0,0,0,0,0,0,0,0,0,0,0,0,0,0,0,0,0,0,0,0,0,0,0,0,0,0,0,0,0,0,0,0,0,0,0,0,0,0,0,0,0,0,0,0,0],"sum_hessian":[1.4736263E3,4.7797412E2,9.956522E2,3.525082E2,1.2546592E2,9.278076E2,6.784462E1,1.596441E2,1.928641E2,9.569712E1,2.9768803E1,9.0143304E2,2.6374584E1,6.3386303E1,4.458313E0,1.1173736E2,4.7906746E1,1.8759108E2,5.2730126E0,1.1445155E1,8.425196E1,1.532849E1,1.4440312E1,7.3136194E2,1.7007108E2,1.6293335E1,1.0081249E1,8.67232E1,2.5014158E1,4.0920153E0,1.180997E0,9.801462E0,1.6436932E0,1.4205495E0,8.283141E1,1.3920226E1,1.4082636E0,2.3367994E0,1.2103513E1,7.059632E2,2.5398796E1,1.1478579E0,1.6892322E2,3.4444876E0,6.636761E0],"tree_param":{"num_deleted":"0","num_feature":"39","num_nodes":"45","size_leaf_vector":"1"}},{"base_weights":[-1.6869283E-3,1.1319962E0,-5.908342E-1,-8.09693E-1,1.7559046E0,-7.896802E-1,1.9358778E0,1.067549E0,-1.2657653E0,1.9964108E0,1.1620656E0,-8.5972893E-1,1.6163718E0,-5.9884936E-2,1.0795249E-1,-5.2371216E-1,1.6308613E0,-2.903311E-1,-1.3415805E0,1.6219127E0,1.0881328E-1,1.5855682E0,1.6674149E-1,-8.9453125E-1,1.1163207E-1,-2.4505225E-1,1.9611385E0,-6.2492706E-2,6.8280235E-2,9.09554E-2,2.5616555E-2,-4.6926506E-2,4.979401E-2,-6.8059936E-2,6.015055E-3,5.5284966E-2,1.0226271E-1,9.284967E-3,8.900802E-2,-5.2034654E-2,6.122728E-2,-3.2128677E-2,-6.066965E-2,-3.0128075E-2,2.3904381E-2,-7.556026E-3,1.066375E-1],"categories":[],"categories_nodes":[],"categories_segments":[],"categories_sizes":[],"default_left":[0,0,0,0,0,0,0,0,0,0,0,0,0,0,0,0,0,0,0,0,0,0,0,0,0,0,0,0,0,0,0,0,0,0,0,0,0,0,0,0,0,0,0,0,0,0,0],"id":3,"left_children":[1,3,5,7,9,11,13,15,17,19,21,23,25,-1,-1,27,29,31,33,35,-1,37,39,41,-1,43,45,-1,-1,-1,-1,-1,-1,-1,-1,-1,-1,-1,-1,-1,-1,-1,-1,-1,-1,-1,-1],"loss_changes":[9.8137164E2,6.101175E2,4.873078E2,1.06550316E2,5.203589E1,1.5257709E2,5.2118134E1,2.2868626E1,6.955017E0,1.4621582E1,4.6987915E1,9.587714E1,1.6989357E1,0E0,0E0,1.1554373E1,2.938408E0,7.970102E0,2.7986908E0,1.7703415E1,0E0,2.1058914E1,4.5438095E1,6.857904E1,0E0,1.5571785E0,8.230118E0,0E0,0E0,0E0,0E0,0E0,0E0,0E0,0E0,0E0,0E0,0E0,0E0,0E0,0E0,0E0,0E0,0E0,0E0,0E0,0E0],"parents":[2147483647,0,0,1,1,2,2,3,3,4,4,5,5,6,6,7,7,8,8,9,9,10,10,11,11,12,12,15,15,16,16,17,17,18,18,19,19,21,21,22,22,23,23,25,25,26,26],"right_children":[2,4,6,8,10,12,14,16,18,20,22,24,26,-1,-1,28,30,32,34,36,-1,38,40,42,-1,44,46,-1,-1,-1,-1,-1,-1,-1,-1,-1,-1,-1,-1,-1,-1,-1,-1,-1,-1,-1,-1],"split_conditions":[-7.967835E-1,-9.1058755E-1,5.77992E-1,-1.4872752E-1,-1.2970021E-1,9.7044253E-1,-4.9431223E-1,-6.723042E-1,-1.9885918E-1,1.1564028E-2,-6.544691E-1,2.9020613E-1,3.3849874E-1,-5.9884936E-2,1.0795249E-1,-5.105398E-1,-1.5824118E-1,-5.66618E-1,-9.297141E-1,1.9081092E-1,1.0881328E-1,-6.768536E-1,-6.5390486E-1,-2.6965454E-1,1.1163207E-1,3.1744146E-1,1.5287349E0,-6.2492706E-2,6.8280235E-2,9.09554E-2,2.5616555E-2,-4.6926506E-2,4.979401E-2,-6.8059936E-2,6.015055E-3,5.5284966E-2,1.0226271E-1,9.284967E-3,8.900802E-2,-5.2034654E-2,6.122728E-2,-3.2128677E-2,-6.066965E-2,-3.0128075E-2,2.3904381E-2,-7.556026E-3,1.066375E-1],"split_indices":[15,8,19,4,4,14,7,7,2,14,7,22,15,0,0,9,4,9,8,8,0,7,18,2,0,4,18,0,0,0,0,0,0,0,0,0,0,0,0,0,0,0,0,0,0,0,0],"split_type":[0,0,0,0,0,0,0,0,0,0,0,0,0,0,0,0,0,0,0,0,0,0,0,0,0,0,0,0,0,0,0,0,0,0,0,0,0,0,0,0,0,0,0,0,0,0,0],"sum_hessian":[1.4673239E3,5.0145795E2,9.658659E2,1.2187337E2,3.7958456E2,8.960374E2,6.982846E1,2.3559448E1,9.831392E1,2.684854E2,1.1109915E2,8.713131E2,2.4724337E1,4.352196E0,6.5476265E1,6.1779866E0,1.7381462E1,7.438602E0,9.087532E1,9.035786E1,1.7812756E2,7.752139E1,3.357776E1,8.6231903E2,8.994041E0,3.9089298E0,2.0815407E1,4.7072573E0,1.4707294E0,1.4341479E1,3.039983E0,5.125746E0,2.3128562E0,8.97399E1,1.1354225E0,4.234055E1,4.8017303E1,9.69942E0,6.7821976E1,1.5687443E1,1.7890316E1,4.8337866E2,3.789404E2,2.7273252E0,1.1816047E0,1.5730543E0,1.9242353E1],"tree_param":{"num_deleted":"0","num_feature":"39","num_nodes":"47","size_leaf_vector":"1"}},{"base_weights":[1.1121739E-2,1.0685881E0,-5.47006E-1,1.6715715E0,-8.905596E-1,-7.5017446E-1,1.8052353E0,1.8938917E0,1.0580775E0,-1.1570925E0,7.0421064E-1,-8.113015E-1,1.6494685E0,-5.9724953E-2,2.0265644E0,1.5881778E0,1.02571E-1,3.1622472E-1,1.9821017E0,-1.2809187E0,-8.524216E-1,1.7839197E0,-5.2913476E-2,-8.488758E-1,1.0616671E-1,-1.1061737E-1,1.9788778E0,1.0234665E-1,3.0672098E-2,6.6357836E-2,9.829124E-2,-4.0462486E-2,7.9851545E-2,2.387754E-2,1.0135587E-1,-6.522108E-2,-1.7272475E-3,-2.0258555E-2,-5.2112937E-2,2.1903826E-2,9.502937E-2,-3.596292E-2,-7.1134835E-2,-2.9758427E-2,2.1557353E-2,3.482928E-2,1.0215707E-1],"categories":[],"categories_nodes":[],"categories_segments":[],"categories_sizes":[],"default_left":[0,0,0,0,0,0,0,0,0,0,0,0,0,0,0,0,0,0,0,0,0,0,0,0,0,0,0,0,0,0,0,0,0,0,0,0,0,0,0,0,0,0,0,0,0,0,0],"id":4,"left_children":[1,3,5,7,9,11,13,15,17,19,21,23,25,-1,27,29,-1,31,33,35,37,39,-1,41,-1,43,45,-1,-1,-1,-1,-1,-1,-1,-1,-1,-1,-1,-1,-1,-1,-1,-1,-1,-1,-1,-1],"loss_changes":[8.623568E2,5.977788E2,4.5840588E2,5.068628E1,5.1585945E1,1.305723E2,5.3098557E1,1.0336792E1,7.13653E1,2.7833405E0,3.5619465E1,9.6612854E1,1.3099102E1,0E0,8.010559E-1,7.2901917E0,0E0,8.698122E1,2.1867065E0,2.03611E0,2.3517895E0,9.5178604E-1,0E0,6.217285E1,0E0,1.4246056E0,1.23184204E-1,0E0,0E0,0E0,0E0,0E0,0E0,0E0,0E0,0E0,0E0,0E0,0E0,0E0,0E0,0E0,0E0,0E0,0E0,0E0,0E0],"parents":[2147483647,0,0,1,1,2,2,3,3,4,4,5,5,6,6,7,7,8,8,9,9,10,10,11,11,12,12,14,14,15,15,17,17,18,18,19,19,20,20,21,21,23,23,25,25,26,26],"right_children":[2,4,6,8,10,12,14,16,18,20,22,24,26,-1,28,30,-1,32,34,36,38,40,-1,42,-1,44,46,-1,-1,-1,-1,-1,-1,-1,-1,-1,-1,-1,-1,-1,-1,-1,-1,-1,-1,-1,-1],"split_conditions":[-7.967835E-1,-5.638727E-2,5.77992E-1,-1.440436E-1,-6.8898386E-1,1.0014359E0,-4.9431223E-1,-1.1174039E-1,2.3397684E0,3.0145726E-1,-6.5778404E-1,1.1594997E1,3.3849874E-1,-5.9724953E-2,1.1098111E0,3.0145726E-1,1.02571E-1,1.271802E0,-1.0816945E0,3.1651645E0,4.1662067E-1,8.2334816E-1,-5.2913476E-2,-2.1062109E-1,1.0616671E-1,1.9049721E0,1.0672748E0,1.0234665E-1,3.0672098E-2,6.6357836E-2,9.829124E-2,-4.0462486E-2,7.9851545E-2,2.387754E-2,1.0135587E-1,-6.522108E-2,-1.7272475E-3,-2.0258555E-2,-5.2112937E-2,2.1903826E-2,9.502937E-2,-3.596292E-2,-7.1134835E-2,-2.9758427E-2,2.1557353E-2,3.482928E-2,1.0215707E-1],"split_indices":[15,0,19,6,8,14,7,1,5,3,7,22,15,0,16,3,0,21,8,6,6,3,0,0,0,13,14,0,0,0,0,0,0,0,0,0,0,0,0,0,0,0,0,0,0,0,0],"split_type":[0,0,0,0,0,0,0,0,0,0,0,0,0,0,0,0,0,0,0,0,0,0,0,0,0,0,0,0,0,0,0,0,0,0,0,0,0,0,0,0,0,0,0,0,0,0,0],"sum_hessian":[1.4591327E3,5.037602E2,9.5537256E2,3.8531525E2,1.1844493E2,8.8004236E2,7.533019E1,2.8129242E2,1.04022835E2,1.01719124E2,1.6725803E1,8.58827E2,2.1215342E1,4.874042E0,7.045615E1,9.942359E1,1.8186884E2,5.844361E1,4.557922E1,7.0046234E1,3.1672892E1,1.0364354E1,6.361449E0,8.486716E2,1.0155422E1,3.4493117E0,1.776603E1,6.901289E1,1.4432528E0,6.1458878E1,3.7964714E1,3.1304117E1,2.7139492E1,1.6613351E0,4.3917885E1,6.870411E1,1.3421245E0,1.0371729E1,2.1301163E1,1.2060956E0,9.158258E0,6.941314E2,1.5454022E2,1.7687644E0,1.6805475E0,1.4129065E0,1.6353123E1],"tree_param":{"num_deleted":"0","num_feature":"39","num_nodes":"47","size_leaf_vector":"1"}},{"base_weights":[3.5436752E-3,-6.5969145E-1,6.312618E-1,-7.33462E-1,1.8018355E0,-1.1157157E0,1.2789993E0,-7.9454774E-1,9.4541025E-1,-8.814599E-3,9.866523E-2,1.0056872E0,-1.3053792E0,1.781866E0,7.0634073E-1,-2.1534298E-1,-9.4711506E-1,1.3930644E0,4.2992106E-1,-5.625767E-1,1.6014061E0,1.2303265E-2,-1.3379625E0,1.5075366E0,1.9054935E0,2.9517797E-1,9.683241E-2,-3.5090216E-2,2.4805296E-2,-4.8759375E-2,1.1097514E-1,1.7093372E-4,7.683622E-2,-3.6046825E-2,6.0833316E-2,-5.623892E-2,3.859591E-2,8.418723E-2,2.1118116E-2,6.8562806E-2,-3.4330808E-2,1.7240956E-2,-6.763553E-2,-2.5533417E-2,7.945495E-2,9.6147306E-2,5.0748598E-2,4.6054594E-2,-6.841337E-2],"categories":[],"categories_nodes":[],"categories_segments":[],"categories_sizes":[],"default_left":[0,0,0,0,0,0,0,0,0,0,0,0,0,0,0,0,0,0,0,0,0,0,0,0,0,0,0,0,0,0,0,0,0,0,0,0,0,0,0,0,0,0,0,0,0,0,0,0,0],"id":5,"left_children":[1,3,5,7,9,11,13,15,17,-1,-1,19,21,23,25,27,29,31,33,35,37,39,41,43,45,47,-1,-1,-1,-1,-1,-1,-1,-1,-1,-1,-1,-1,-1,-1,-1,-1,-1,-1,-1,-1,-1,-1,-1],"loss_changes":[6.041183E2,1.2944632E2,8.450172E2,7.1079285E1,7.409691E0,8.2660614E1,1.5548828E2,5.831555E1,5.0621185E0,0E0,0E0,1.6930006E1,8.003265E0,6.934326E0,1.2900537E2,4.8580338E1,4.8733215E1,2.526842E0,1.2510549E1,4.9670486E0,5.211983E-1,6.1462555E0,4.971924E0,1.6386475E1,1.0873413E0,2.0238483E2,0E0,0E0,0E0,0E0,0E0,0E0,0E0,0E0,0E0,0E0,0E0,0E0,0E0,0E0,0E0,0E0,0E0,0E0,0E0,0E0,0E0,0E0,0E0],"parents":[2147483647,0,0,1,1,2,2,3,3,4,4,5,5,6,6,7,7,8,8,11,11,12,12,13,13,14,14,15,15,16,16,17,17,18,18,19,19,20,20,21,21,22,22,23,23,24,24,25,25],"right_children":[2,4,6,8,10,12,14,16,18,-1,-1,20,22,24,26,28,30,32,34,36,38,40,42,44,46,48,-1,-1,-1,-1,-1,-1,-1,-1,-1,-1,-1,-1,-1,-1,-1,-1,-1,-1,-1,-1,-1,-1,-1],"split_conditions":[-3.2126504E-1,2.3397684E0,-1.065613E0,-7.737513E-2,-3.2494533E-1,-1.5824118E-1,-1.973179E-1,-3.0927753E-1,-2.6965454E-1,-8.814599E-3,9.866523E-2,-6.7001486E-1,-2.2098273E-1,-9.8444265E-1,3.3020413E0,-1.5824118E-1,3.0759943E-1,-3.1995666E-1,-2.908559E-1,-1.1174039E-1,-3.4756947E-1,-2.9390264E0,-1.3371204E-1,-3.798268E-1,-1.8974186E-1,-6.311514E-2,9.683241E-2,-3.5090216E-2,2.4805296E-2,-4.8759375E-2,1.1097514E-1,1.7093372E-4,7.683622E-2,-3.6046825E-2,6.0833316E-2,-5.623892E-2,3.859591E-2,8.418723E-2,2.1118116E-2,6.8562806E-2,-3.4330808E-2,1.7240956E-2,-6.763553E-2,-2.5533417E-2,7.945495E-2,9.6147306E-2,5.0748598E-2,4.6054594E-2,-6.841337E-2],"split_indices":[6,5,8,4,0,4,0,18,2,0,0,7,2,13,1,4,23,0,0,1,18,8,0,8,16,18,0,0,0,0,0,0,0,0,0,0,0,0,0,0,0,0,0,0,0,0,0,0,0],"split_type":[0,0,0,0,0,0,0,0,0,0,0,0,0,0,0,0,0,0,0,0,0,0,0,0,0,0,0,0,0,0,0,0,0,0,0,0,0,0,0,0,0,0,0,0,0,0,0,0,0],"sum_hessian":[1.4490745E3,7.045788E2,7.444956E2,6.8475903E2,1.9819798E1,2.0118042E2,5.433152E2,6.61227E2,2.3531998E1,1.5787421E0,1.8241056E1,1.6157282E1,1.8502315E2,2.8816147E2,2.551537E2,1.3836214E2,5.2286487E2,1.1683531E1,1.1848467E1,4.4632235E0,1.1694057E1,4.479825E0,1.8054332E2,9.3617874E1,1.945436E2,1.92171E2,6.29827E1,8.218248E1,5.6179653E1,5.189563E2,3.9085612E0,1.1905878E0,1.0492943E1,4.844922E0,7.003545E0,3.2508442E0,1.2123791E0,1.0530595E1,1.1634631E0,1.1947776E0,3.2850473E0,1.3741068E0,1.7916922E2,3.432085E0,9.018579E1,1.8966711E2,4.8764825E0,1.3995546E2,5.221555E1],"tree_param":{"num_deleted":"0","num_feature":"39","num_nodes":"49","size_leaf_vector":"1"}},{"base_weights":[-3.90279E-3,9.714972E-1,-5.315886E-1,1.5213892E0,-9.16084E-1,-7.1701705E-1,1.6836743E0,1.7205411E0,9.414588E-1,4.5401472E-1,-1.1364827E0,-7.8517014E-1,1.4431133E0,-5.3182114E-2,1.8287611E0,1.4615297E0,9.309921E-2,1.3184182E-1,1.3212272E0,-1.6991821E-1,1.5224665E0,-6.330077E-2,-3.2167543E-2,-6.5672684E-1,-1.3672044E0,-3.1965935E-1,1.7169207E0,9.233827E-2,2.9254124E-2,4.798564E-2,8.167593E-2,-2.836499E-2,8.1243455E-2,7.343391E-2,-5.100357E-2,-4.3282848E-2,8.322545E-2,2.5290579E-2,8.304348E-2,7.404645E-2,-5.271227E-2,-3.5211295E-2,7.398966E-2,-6.868096E-2,-1.629333E-2,-4.4786822E-2,1.1334187E-2,-2.1044524E-2,9.331087E-2],"categories":[],"categories_nodes":[],"categories_segments":[],"categories_sizes":[],"default_left":[0,0,0,0,0,0,0,0,0,0,0,0,0,0,0,0,0,0,0,0,0,0,0,0,0,0,0,0,0,0,0,0,0,0,0,0,0,0,0,0,0,0,0,0,0,0,0,0,0],"id":6,"left_children":[1,3,5,7,9,11,13,15,17,19,21,23,25,-1,27,29,-1,31,33,35,37,-1,39,41,43,45,47,-1,-1,-1,-1,-1,-1,-1,-1,-1,-1,-1,-1,-1,-1,-1,-1,-1,-1,-1,-1,-1,-1],"loss_changes":[7.339144E2,5.209867E2,3.8129654E2,4.3195618E1,3.4806374E1,1.2693732E2,3.0552078E1,7.816101E0,3.1002472E1,1.1225164E1,1.3992844E1,6.10802E1,1.3333866E1,0E0,4.5414734E-1,7.601837E0,0E0,3.5876945E1,2.5288177E1,1.5843936E1,2.7400017E-2,0E0,1.9076185E1,7.016113E1,5.474243E-1,1.5892415E0,8.153275E0,0E0,0E0,0E0,0E0,0E0,0E0,0E0,0E0,0E0,0E0,0E0,0E0,0E0,0E0,0E0,0E0,0E0,0E0,0E0,0E0,0E0,0E0],"parents":[2147483647,0,0,1,1,2,2,3,3,4,4,5,5,6,6,7,7,8,8,9,9,10,10,11,11,12,12,14,14,15,15,17,17,18,18,19,19,20,20,22,22,23,23,24,24,25,25,26,26],"right_children":[2,4,6,8,10,12,14,16,18,20,22,24,26,-1,28,30,-1,32,34,36,38,-1,40,42,44,46,48,-1,-1,-1,-1,-1,-1,-1,-1,-1,-1,-1,-1,-1,-1,-1,-1,-1,-1,-1,-1,-1,-1],"split_conditions":[-7.967835E-1,-5.638727E-2,5.77992E-1,-1.4082138E-1,-1.3921387E-1,9.7044253E-1,-5.367474E-1,-1.1174039E-1,-6.691313E-1,-8.320026E-1,-6.4281636E-1,-2.1062109E-1,6.392462E-1,-5.3182114E-2,1.1098111E0,1.7099804E-1,9.309921E-2,1.1564028E-2,-1.5536389E-2,3.9924687E-1,4.6066705E-2,-6.330077E-2,-6.5778404E-1,-1.1174039E-1,2.9106493E0,-3.0551016E-1,1.3372754E0,9.233827E-2,2.9254124E-2,4.798564E-2,8.167593E-2,-2.836499E-2,8.1243455E-2,7.343391E-2,-5.100357E-2,-4.3282848E-2,8.322545E-2,2.5290579E-2,8.304348E-2,7.404645E-2,-5.271227E-2,-3.5211295E-2,7.398966E-2,-6.868096E-2,-1.629333E-2,-4.4786822E-2,1.1334187E-2,-2.1044524E-2,9.331087E-2],"split_indices":[15,0,19,6,4,14,7,1,7,8,8,0,15,0,16,8,0,14,4,0,6,0,7,1,26,15,18,0,0,0,0,0,0,0,0,0,0,0,0,0,0,0,0,0,0,0,0,0,0],"split_type":[0,0,0,0,0,0,0,0,0,0,0,0,0,0,0,0,0,0,0,0,0,0,0,0,0,0,0,0,0,0,0,0,0,0,0,0,0,0,0,0,0,0,0,0,0,0,0,0,0],"sum_hessian":[1.4238909E3,4.9958774E2,9.2430316E2,3.8703134E2,1.1255637E2,8.535344E2,7.076872E1,2.8663293E2,1.0039842E2,1.5450306E1,9.710607E1,8.280457E2,2.54887E1,3.232276E0,6.7536446E1,1.05243385E2,1.8138954E2,3.248716E1,6.791126E1,1.0285156E1,5.1651497E0,8.678056E1,1.0325505E1,6.800915E2,1.4795425E2,3.4043062E0,2.2084394E1,6.609469E1,1.4417537E0,2.854294E1,7.670045E1,2.254842E1,9.938741E0,6.423835E1,3.6729162E0,7.8398576E0,2.4452987E0,1.1766388E0,3.9885106E0,3.9818246E0,6.343681E0,6.6595636E2,1.4135141E1,1.4673128E2,1.2229692E0,1.3457757E0,2.0585306E0,1.3228637E0,2.0761532E1],"tree_param":{"num_deleted":"0","num_feature":"39","num_nodes":"49","size_leaf_vector":"1"}},{"base_weights":[-2.0792058E-3,9.2414755E-1,-5.0606704E-1,1.4818089E0,-6.260309E-1,-6.8843323E-1,1.5748874E0,1.1473581E0,1.7507964E0,-1.0150977E0,9.788633E-1,-7.551158E-1,1.4079791E0,-5.6643214E-2,1.7760901E0,7.1476614E-1,8.156409E-2,8.861252E-2,-4.8466306E-2,4.256828E-1,-1.1613533E0,1.594367E0,-5.0670605E-2,-7.858555E-1,9.510338E-2,2.0379539E-1,1.6655873E0,3.0225983E-2,8.961539E-2,-6.27071E-3,9.055895E-2,-1.4169543E-2,8.433935E-2,-6.197482E-3,-5.977574E-2,8.109739E-3,8.8931076E-2,-3.2875966E-2,-6.700884E-2,7.438924E-2,-4.2094436E-2,2.2858795E-2,8.982497E-2],"categories":[],"categories_nodes":[],"categories_segments":[],"categories_sizes":[],"default_left":[0,0,0,0,0,0,0,0,0,0,0,0,0,0,0,0,0,0,0,0,0,0,0,0,0,0,0,0,0,0,0,0,0,0,0,0,0,0,0,0,0,0,0],"id":7,"left_children":[1,3,5,7,9,11,13,15,17,19,21,23,25,-1,27,29,-1,-1,-1,31,33,35,-1,37,-1,39,41,-1,-1,-1,-1,-1,-1,-1,-1,-1,-1,-1,-1,-1,-1,-1,-1],"loss_changes":[6.599335E2,4.315878E2,3.4852808E2,3.097821E1,8.372996E1,1.18835175E2,4.2367844E1,3.365767E1,1.3466614E1,2.3071045E1,3.3943954E1,6.823999E1,7.8252716E0,0E0,2.3397827E-1,8.2776855E1,0E0,0E0,0E0,9.961513E0,3.3083496E0,5.1289406E0,0E0,5.6635742E1,0E0,9.0100355E0,2.5865974E0,0E0,0E0,0E0,0E0,0E0,0E0,0E0,0E0,0E0,0E0,0E0,0E0,0E0,0E0,0E0,0E0],"parents":[2147483647,0,0,1,1,2,2,3,3,4,4,5,5,6,6,7,7,8,8,9,9,10,10,11,11,12,12,14,14,15,15,19,19,20,20,21,21,23,23,25,25,26,26],"right_children":[2,4,6,8,10,12,14,16,18,20,22,24,26,-1,28,30,-1,-1,-1,32,34,36,-1,38,-1,40,42,-1,-1,-1,-1,-1,-1,-1,-1,-1,-1,-1,-1,-1,-1,-1,-1],"split_conditions":[-7.967835E-1,-1.5155254E-2,5.77992E-1,1.271802E0,-6.8898386E-1,2.713959E0,-4.9431223E-1,1.9081092E-1,-3.8958006E-2,-1.5348436E-1,-6.5778404E-1,1.1594997E1,8.696868E-1,-5.6643214E-2,6.4629143E-1,2.3397684E0,8.156409E-2,8.861252E-2,-4.8466306E-2,6.582863E-1,-2.2664207E-3,3.0145726E-1,-5.0670605E-2,-2.697097E-1,9.510338E-2,1.9049721E0,7.5261694E-1,3.0225983E-2,8.961539E-2,-6.27071E-3,9.055895E-2,-1.4169543E-2,8.433935E-2,-6.197482E-3,-5.977574E-2,8.109739E-3,8.8931076E-2,-3.2875966E-2,-6.700884E-2,7.438924E-2,-4.2094436E-2,2.2858795E-2,8.982497E-2],"split_indices":[15,6,19,21,8,9,7,8,20,4,7,22,14,0,16,5,0,0,0,6,6,3,0,6,0,13,15,0,0,0,0,0,0,0,0,0,0,0,0,0,0,0,0],"split_type":[0,0,0,0,0,0,0,0,0,0,0,0,0,0,0,0,0,0,0,0,0,0,0,0,0,0,0,0,0,0,0,0,0,0,0,0,0,0,0,0,0,0,0],"sum_hessian":[1.4117162E3,4.9717548E2,9.145407E2,3.6567252E2,1.3150296E2,8.4146716E2,7.307352E1,1.653486E2,2.0032391E2,1.0613956E2,2.5363405E1,8.1614703E2,2.5320154E1,4.73398E0,6.833954E1,8.861257E1,7.673604E1,1.9910204E2,1.2218761E0,9.605373E0,9.653418E1,1.9529566E1,5.8338385E0,8.075096E2,8.63742E0,4.7777543E0,2.05424E1,1.4556817E0,6.688386E1,5.0669888E1,3.794268E1,6.6446233E0,2.96075E0,3.2250535E0,9.330913E1,2.4404817E0,1.7089085E1,6.574771E2,1.5003249E2,1.9547462E0,2.8230078E0,2.4470088E0,1.8095392E1],"tree_param":{"num_deleted":"0","num_feature":"39","num_nodes":"43","size_leaf_vector":"1"}},{"base_weights":[3.1469685E-3,8.971547E-1,-4.6593177E-1,1.3749872E0,-8.154708E-1,-6.38701E-1,1.5329082E0,1.0213709E0,1.6971631E0,4.8557132E-1,-1.0431373E0,-6.9982296E-1,1.3689203E0,-5.3159434E-2,1.6847022E0,8.0064297E-1,1.6218305E0,8.615203E-2,1.1934961E0,8.921628E-2,7.641422E-2,-1.1069101E0,3.964674E-1,-5.635528E-1,-1.3118834E0,8.2956344E-2,7.0019126E-1,1.8750472E-2,1.7026201E0,6.5286785E-2,-6.2870793E-3,6.2417764E-2,9.054672E-2,7.2136484E-2,5.0429865E-3,-2.321277E-2,7.8925304E-2,-3.549738E-2,-5.993696E-2,6.600789E-2,-4.174921E-2,-3.0654067E-2,6.8668805E-2,2.3696957E-2,-6.643414E-2,-1.7016048E-2,7.5452045E-2,8.6189635E-2,1.4839977E-2],"categories":[],"categories_nodes":[],"categories_segments":[],"categories_sizes":[],"default_left":[0,0,0,0,0,0,0,0,0,0,0,0,0,0,0,0,0,0,0,0,0,0,0,0,0,0,0,0,0,0,0,0,0,0,0,0,0,0,0,0,0,0,0,0,0,0,0,0,0],"id":8,"left_children":[1,3,5,7,9,11,13,15,17,19,21,23,25,-1,27,29,31,-1,33,35,-1,37,39,41,43,-1,45,-1,47,-1,-1,-1,-1,-1,-1,-1,-1,-1,-1,-1,-1,-1,-1,-1,-1,-1,-1,-1,-1],"loss_changes":[5.861618E2,3.947529E2,3.1756738E2,4.1154358E1,3.1772606E1,1.0458887E2,3.0648636E1,2.2820786E1,4.9127197E-1,6.6425705E0,8.715637E0,6.7672455E1,3.7463188E0,0E0,9.941101E-1,6.335096E1,1.1250839E0,0E0,3.3418427E0,1.1404673E1,0E0,2.3055038E0,6.2898626E0,6.536859E1,5.0880737E0,0E0,8.411127E0,0E0,1.5227814E0,0E0,0E0,0E0,0E0,0E0,0E0,0E0,0E0,0E0,0E0,0E0,0E0,0E0,0E0,0E0,0E0,0E0,0E0,0E0,0E0],"parents":[2147483647,0,0,1,1,2,2,3,3,4,4,5,5,6,6,7,7,8,8,9,9,10,10,11,11,12,12,14,14,15,15,16,16,18,18,19,19,21,21,22,22,23,23,24,24,26,26,28,28],"right_children":[2,4,6,8,10,12,14,16,18,20,22,24,26,-1,28,30,32,-1,34,36,-1,38,40,42,44,-1,46,-1,48,-1,-1,-1,-1,-1,-1,-1,-1,-1,-1,-1,-1,-1,-1,-1,-1,-1,-1,-1,-1],"split_conditions":[-9.479445E-1,-5.638727E-2,5.77992E-1,1.1564028E-2,-1.3921387E-1,2.713959E0,-4.9431223E-1,2.3397684E0,-1.6788621E-1,-1.8974186E-1,-1.8974186E-1,-1.6156559E-1,3.01967E0,-5.3159434E-2,-3.0956355E-1,-2.2540744E-1,-1.0151557E-1,8.615203E-2,-1.2970021E-1,3.9924687E-1,7.641422E-2,2.26004E-2,-6.8929213E-1,2.3397684E0,-1.2641849E-1,8.2956344E-2,1.3004568E-2,1.8750472E-2,2.3397684E0,6.5286785E-2,-6.2870793E-3,6.2417764E-2,9.054672E-2,7.2136484E-2,5.0429865E-3,-2.321277E-2,7.8925304E-2,-3.549738E-2,-5.993696E-2,6.600789E-2,-4.174921E-2,-3.0654067E-2,6.8668805E-2,2.3696957E-2,-6.643414E-2,-1.7016048E-2,7.5452045E-2,8.6189635E-2,1.4839977E-2],"split_indices":[15,0,19,14,4,9,7,5,2,16,16,0,13,0,0,2,2,0,4,0,0,0,7,5,13,0,4,0,5,0,0,0,0,0,0,0,0,0,0,0,0,0,0,0,0,0,0,0,0],"split_type":[0,0,0,0,0,0,0,0,0,0,0,0,0,0,0,0,0,0,0,0,0,0,0,0,0,0,0,0,0,0,0,0,0,0,0,0,0,0,0,0,0,0,0,0,0,0,0,0,0],"sum_hessian":[1.3957565E3,4.8000745E2,9.157491E2,3.7545142E2,1.0455601E2,8.435201E2,7.222898E1,1.8098007E2,1.9447134E2,1.5402541E1,8.915347E1,8.1923004E2,2.4290018E1,3.6582718E0,6.857071E1,1.3404042E2,4.693966E1,1.8266533E2,1.1806023E1,1.1946871E1,3.4556708E0,8.55929E1,3.5605655E0,6.716202E2,1.4760988E2,1.5906224E1,8.383794E0,1.2214249E0,6.734929E1,8.647963E1,4.756079E1,1.8333294E1,2.8606367E1,9.35232E0,2.4537034E0,9.21174E0,2.7351308E0,1.7720617E1,6.7872284E1,1.9933525E0,1.5672128E0,6.555411E2,1.6079126E1,1.1220233E0,1.4648785E2,3.9201398E0,4.4636545E0,6.612719E1,1.2220956E0],"tree_param":{"num_deleted":"0","num_feature":"39","num_nodes":"49","size_leaf_vector":"1"}},{"base_weights":[-1.2183545E-2,8.770139E-1,-4.6591774E-1,1.363492E0,-6.437797E-1,-6.27276E-1,1.4883978E0,1.0346687E0,1.631073E0,-1.024172E0,5.3841436E-1,-6.899469E-1,1.3400872E0,-5.1364925E-2,1.6317719E0,-8.795685E-1,1.1263946E0,8.425095E-2,1.227573E0,1.4581653E-1,-1.1860992E0,-8.478429E-1,1.4750386E0,-1.286369E0,-5.60487E-1,-3.7098285E-2,1.4570652E0,8.2477085E-2,1.8650323E-2,-6.3903816E-2,2.6944427E-2,4.4965934E-2,8.096203E-2,7.4440904E-2,-6.662286E-2,-2.6859095E-2,7.233383E-2,2.5409529E-2,-6.1613556E-2,-5.5220928E-2,3.0806681E-2,8.399015E-2,5.029295E-3,6.161171E-3,-6.507905E-2,-3.149391E-2,6.839892E-2,-5.532748E-3,7.95217E-2],"categories":[],"categories_nodes":[],"categories_segments":[],"categories_sizes":[],"default_left":[0,0,0,0,0,0,0,0,0,0,0,0,0,0,0,0,0,0,0,0,0,0,0,0,0,0,0,0,0,0,0,0,0,0,0,0,0,0,0,0,0,0,0,0,0,0,0,0,0],"id":9,"left_children":[1,3,5,7,9,11,13,15,17,19,21,23,25,-1,27,29,31,-1,33,35,37,39,41,43,45,-1,47,-1,-1,-1,-1,-1,-1,-1,-1,-1,-1,-1,-1,-1,-1,-1,-1,-1,-1,-1,-1,-1,-1],"loss_changes":[5.534636E2,3.4378363E2,2.8735883E2,2.9238098E1,5.137173E1,1.044592E2,2.6769287E1,2.9159775E1,2.111908E0,1.6436287E1,3.7821808E1,6.2165558E1,7.4777107E0,0E0,8.655853E-1,5.1528854E0,1.57260895E1,0E0,1.9594456E1,1.0840946E1,6.533798E0,5.1849604E0,4.6645203E0,3.2585297E0,9.065019E1,0E0,5.445755E0,0E0,0E0,0E0,0E0,0E0,0E0,0E0,0E0,0E0,0E0,0E0,0E0,0E0,0E0,0E0,0E0,0E0,0E0,0E0,0E0,0E0,0E0],"parents":[2147483647,0,0,1,1,2,2,3,3,4,4,5,5,6,6,7,7,8,8,9,9,10,10,11,11,12,12,14,14,15,15,16,16,18,18,19,19,20,20,21,21,22,22,23,23,24,24,26,26],"right_children":[2,4,6,8,10,12,14,16,18,20,22,24,26,-1,28,30,32,-1,34,36,38,40,42,44,46,-1,48,-1,-1,-1,-1,-1,-1,-1,-1,-1,-1,-1,-1,-1,-1,-1,-1,-1,-1,-1,-1,-1,-1],"split_conditions":[-9.479445E-1,-8.590371E-2,5.77992E-1,-1.1174039E-1,-7.1328247E-1,2.713959E0,-4.9431223E-1,-9.7753036E-1,-3.2914183E-1,-1.439707E-1,8.2334816E-1,1.0536784E-1,6.311816E-1,-5.1364925E-2,9.9944925E-1,-6.5666497E-1,2.3397684E0,8.425095E-2,-1.7948788E-1,5.0362027E-1,-2.2098273E-1,-1.7712735E-1,-6.5778404E-1,-3.9838332E-1,-1.1174039E-1,-3.7098285E-2,-1.2128268E-1,8.2477085E-2,1.8650323E-2,-6.3903816E-2,2.6944427E-2,4.4965934E-2,8.096203E-2,7.4440904E-2,-6.662286E-2,-2.6859095E-2,7.233383E-2,2.5409529E-2,-6.1613556E-2,-5.5220928E-2,3.0806681E-2,8.399015E-2,5.029295E-3,6.161171E-3,-6.507905E-2,-3.149391E-2,6.839892E-2,-5.532748E-3,7.95217E-2],"split_indices":[15,0,19,1,8,9,7,8,28,4,3,8,14,0,16,7,5,0,6,6,2,8,7,9,1,0,15,0,0,0,0,0,0,0,0,0,0,0,0,0,0,0,0,0,0,0,0,0,0],"split_type":[0,0,0,0,0,0,0,0,0,0,0,0,0,0,0,0,0,0,0,0,0,0,0,0,0,0,0,0,0,0,0,0,0,0,0,0,0,0,0,0,0,0,0,0,0,0,0,0,0],"sum_hessian":[1.3697826E3,4.624911E2,9.0729156E2,3.504811E2,1.1200998E2,8.3872144E2,6.857009E1,1.5942934E2,1.9105177E2,8.4843666E1,2.7166317E1,8.134578E2,2.5263615E1,3.364805E0,6.5205284E1,6.8974223E0,1.5253192E2,1.6571983E2,2.5331938E1,1.0326936E1,7.451673E1,1.0992129E1,1.6174187E1,1.4348517E2,6.6997266E2,1.0596942E0,2.420392E1,6.3991486E1,1.2138021E0,5.4618993E0,1.4355233E0,1.0635446E2,4.617746E1,2.3365936E1,1.9660007E0,7.1565466E0,3.1703887E0,1.7113601E0,7.280537E1,9.561917E0,1.4302119E0,1.3883655E1,2.2905324E0,1.4561098E0,1.4202905E2,6.473526E2,2.2620049E1,1.9109888E0,2.229293E1],"tree_param":{"num_deleted":"0","num_feature":"39","num_nodes":"49","size_leaf_vector":"1"}},{"base_weights":[9.492008E-3,8.530217E-1,-4.5489478E-1,1.3212625E0,-5.692007E-1,-6.160838E-1,1.4476498E0,1.4848139E0,8.171579E-1,-9.546149E-1,9.830823E-1,-6.7895484E-1,1.2771004E0,-5.0535556E-2,1.5883477E0,1.2485912E0,8.038439E-2,2.3412164E-1,1.573227E0,3.13761E-2,-9.865019E-1,1.5778713E0,-7.863101E-1,-4.3071187E-1,-1.0091068E0,1.4783804E0,9.51654E-2,8.038571E-2,1.5993072E-2,5.133855E-2,7.9089515E-2,-4.5439523E-2,6.335309E-2,1.0638679E-2,8.092915E-2,-5.840569E-3,-5.1020414E-2,1.2938243E-2,8.3680496E-2,1.0849726E-2,-5.0673913E-2,-2.450022E-2,7.884546E-2,-5.1947575E-2,5.2827895E-2,1.6244663E-2,8.181699E-2,-4.8764523E-2,6.372028E-2],"categories":[],"categories_nodes":[],"categories_segments":[],"categories_sizes":[],"default_left":[0,0,0,0,0,0,0,0,0,0,0,0,0,0,0,0,0,0,0,0,0,0,0,0,0,0,0,0,0,0,0,0,0,0,0,0,0,0,0,0,0,0,0,0,0,0,0,0,0],"id":10,"left_children":[1,3,5,7,9,11,13,15,17,19,21,23,25,-1,27,29,-1,31,33,-1,35,37,39,41,43,45,47,-1,-1,-1,-1,-1,-1,-1,-1,-1,-1,-1,-1,-1,-1,-1,-1,-1,-1,-1,-1,-1,-1],"loss_changes":[5.2586084E2,3.1816428E2,2.6640625E2,2.8375305E1,7.198616E1,9.595462E1,2.5098724E1,5.8221436E0,3.9365368E1,5.4441223E0,2.6617983E1,6.298877E1,6.050518E0,0E0,1.0735474E0,5.528656E0,0E0,6.261938E1,2.0664062E0,0E0,2.6568375E0,1.8880615E0,1.7547097E0,5.3561478E1,2.1527466E1,3.5075912E0,7.372476E0,0E0,0E0,0E0,0E0,0E0,0E0,0E0,0E0,0E0,0E0,0E0,0E0,0E0,0E0,0E0,0E0,0E0,0E0,0E0,0E0,0E0,0E0],"parents":[2147483647,0,0,1,1,2,2,3,3,4,4,5,5,6,6,7,7,8,8,9,9,10,10,11,11,12,12,14,14,15,15,17,17,18,18,20,20,21,21,22,22,23,23,24,24,25,25,26,26],"right_children":[2,4,6,8,10,12,14,16,18,20,22,24,26,-1,28,30,-1,32,34,-1,36,38,40,42,44,46,48,-1,-1,-1,-1,-1,-1,-1,-1,-1,-1,-1,-1,-1,-1,-1,-1,-1,-1,-1,-1,-1,-1],"split_conditions":[-7.967835E-1,-8.710838E-3,5.77992E-1,-1.440436E-1,-6.4281636E-1,2.713959E0,-5.174587E-1,-1.1174039E-1,2.3397684E0,-7.02416E-1,-6.5778404E-1,-2.6965454E-1,3.8514178E0,-5.0535556E-2,7.567973E-1,3.0145726E-1,8.038439E-2,1.271802E0,-1.1477239E0,3.13761E-2,-2.2098273E-1,8.2334816E-1,-5.4940784E-1,2.3397684E0,1.0014359E0,7.5261694E-1,2.2028565E0,8.038571E-2,1.5993072E-2,5.133855E-2,7.9089515E-2,-4.5439523E-2,6.335309E-2,1.0638679E-2,8.092915E-2,-5.840569E-3,-5.1020414E-2,1.2938243E-2,8.3680496E-2,1.0849726E-2,-5.0673913E-2,-2.450022E-2,7.884546E-2,-5.1947575E-2,5.2827895E-2,1.6244663E-2,8.181699E-2,-4.8764523E-2,6.372028E-2],"split_indices":[15,6,19,6,8,9,7,1,5,7,7,2,15,0,14,3,0,21,8,0,2,3,8,5,14,15,17,0,0,0,0,0,0,0,0,0,0,0,0,0,0,0,0,0,0,0,0,0,0],"split_type":[0,0,0,0,0,0,0,0,0,0,0,0,0,0,0,0,0,0,0,0,0,0,0,0,0,0,0,0,0,0,0,0,0,0,0,0,0,0,0,0,0,0,0,0,0,0,0,0,0],"sum_hessian":[1.3404362E3,4.7563602E2,8.648001E2,3.5788116E2,1.1775486E2,7.978778E2,6.692231E1,2.6874442E2,8.913675E1,9.464148E1,2.3113377E1,7.728534E2,2.5024424E1,3.2880394E0,6.363427E1,9.577678E1,1.7296764E2,5.106673E1,3.807002E1,1.5007187E0,9.314076E1,1.7379442E1,5.7339354E0,4.4246573E2,3.3038763E2,2.1168652E1,3.8557723E0,6.2413944E1,1.220328E0,5.994873E1,3.5828053E1,2.4299917E1,2.6766813E1,1.4118764E0,3.6658142E1,3.6618023E0,8.947896E1,1.4265767E0,1.5952865E1,1.0668592E0,4.667076E0,4.3050717E2,1.1958548E1,3.2617215E2,4.2154946E0,2.917878E0,1.8250772E1,2.1117659E0,1.7440064E0],"tree_param":{"num_deleted":"0","num_feature":"39","num_nodes":"49","size_leaf_vector":"1"}},{"base_weights":[1.5055214E-2,8.2975596E-1,-4.3414095E-1,1.2691098E0,-7.6038426E-1,-5.850712E-1,1.3612103E0,1.4382142E0,7.9556835E-1,1.2694522E0,-8.922158E-1,-6.5267277E-1,1.0725429E0,-5.1008053E-2,1.512528E0,1.2152296E0,7.870275E-2,2.147676E-1,1.1212603E0,7.4613474E-2,1.9775657E-3,-1.65086E-1,-9.5001787E-1,-5.2965516E-1,-6.3672386E-2,-4.2332273E-2,1.1717335E0,1.3953119E-2,1.5327512E0,6.94541E-2,4.4506185E-2,8.608526E-2,-1.7951664E-2,6.387605E-2,-4.031999E-2,5.4880615E-2,-4.279804E-2,-1.21620195E-2,-4.9896028E-2,-3.0491892E-2,8.103089E-2,9.520156E-2,4.444512E-2,7.76142E-2,1.5542582E-2],"categories":[],"categories_nodes":[],"categories_segments":[],"categories_sizes":[],"default_left":[0,0,0,0,0,0,0,0,0,0,0,0,0,0,0,0,0,0,0,0,0,0,0,0,0,0,0,0,0,0,0,0,0,0,0,0,0,0,0,0,0,0,0,0,0],"id":11,"left_children":[1,3,5,7,9,11,13,15,17,19,21,23,25,-1,27,29,-1,31,33,-1,-1,35,37,39,-1,-1,41,-1,43,-1,-1,-1,-1,-1,-1,-1,-1,-1,-1,-1,-1,-1,-1,-1,-1],"loss_changes":[4.8503793E2,3.3005142E2,2.3230385E2,2.8440063E1,2.8587666E1,8.9091064E1,2.5525406E1,6.2955933E0,1.8571838E1,1.7687998E0,3.9170609E0,5.7250458E1,6.948017E0,0E0,1.1433105E0,4.8098907E0,0E0,3.2584606E1,2.0152534E1,0E0,0E0,8.222138E0,2.7901535E0,1.10432724E2,0E0,0E0,4.555996E0,0E0,9.9108887E-1,0E0,0E0,0E0,0E0,0E0,0E0,0E0,0E0,0E0,0E0,0E0,0E0,0E0,0E0,0E0,0E0],"parents":[2147483647,0,0,1,1,2,2,3,3,4,4,5,5,6,6,7,7,8,8,9,9,10,10,11,11,12,12,14,14,15,15,17,17,18,18,21,21,22,22,23,23,26,26,28,28],"right_children":[2,4,6,8,10,12,14,16,18,20,22,24,26,-1,28,30,-1,32,34,-1,-1,36,38,40,-1,-1,42,-1,44,-1,-1,-1,-1,-1,-1,-1,-1,-1,-1,-1,-1,-1,-1,-1,-1],"split_conditions":[-7.967835E-1,-5.638727E-2,5.77992E-1,-1.4082138E-1,-7.02416E-1,2.1668208E0,-4.9431223E-1,1.1564028E-2,-6.675401E-1,-1.3248853E-1,3.640008E-2,-2.2683434E-1,-3.0551016E-1,-5.1008053E-2,-3.0956355E-1,-2.4310628E-1,7.870275E-2,-6.973735E-1,5.318136E-1,7.4613474E-2,1.9775657E-3,-6.5778404E-1,-6.8929213E-1,-1.1174039E-1,-6.3672386E-2,-4.2332273E-2,1.9136824E-1,1.3953119E-2,7.7824765E-1,6.94541E-2,4.4506185E-2,8.608526E-2,-1.7951664E-2,6.387605E-2,-4.031999E-2,5.4880615E-2,-4.279804E-2,-1.21620195E-2,-4.9896028E-2,-3.0491892E-2,8.103089E-2,9.520156E-2,4.444512E-2,7.76142E-2,1.5542582E-2],"split_indices":[15,0,19,6,7,17,7,14,7,2,6,0,15,0,0,2,0,7,10,0,0,7,7,1,0,0,13,0,14,0,0,0,0,0,0,0,0,0,0,0,0,0,0,0,0],"split_type":[0,0,0,0,0,0,0,0,0,0,0,0,0,0,0,0,0,0,0,0,0,0,0,0,0,0,0,0,0,0,0,0,0,0,0,0,0,0,0,0,0,0,0,0,0],"sum_hessian":[1.3233992E3,4.700425E2,8.533566E2,3.6844382E2,1.015987E2,7.8780237E2,6.5554276E1,2.6999127E2,9.845255E1,5.66983E0,9.592887E1,7.575153E2,3.0287058E1,3.5735435E0,6.1980732E1,1.0597612E2,1.6401514E2,3.596903E1,6.248353E1,4.619589E0,1.0502412E0,7.348127E0,8.858074E1,6.337748E2,1.2374052E2,1.1180937E0,2.9168964E1,1.2385347E0,6.0742195E1,6.6918396E1,3.9057724E1,9.367421E0,2.6601604E1,5.8110245E1,4.373284E0,2.3904395E0,4.9576874E0,6.008367E0,8.257237E1,6.116819E2,2.2092937E1,6.5299034E0,2.2639061E1,5.952034E1,1.2218579E0],"tree_param":{"num_deleted":"0","num_feature":"39","num_nodes":"45","size_leaf_vector":"1"}},{"base_weights":[-1.718835E-2,7.896556E-1,-4.465669E-1,1.20456E0,-7.151272E-1,-5.883052E-1,1.3167133E0,8.615276E-1,1.4825661E0,5.054856E-1,-9.715606E-1,-6.478353E-1,1.1502998E0,-5.0615173E-2,1.4741203E0,6.339193E-1,1.4188983E0,1.4916707E0,1.9081408E-2,7.272336E-2,9.306441E-2,5.1435176E-2,-1.0444129E0,-6.788008E-1,8.59777E-2,7.440389E-2,4.5130143E-1,1.35622E-2,1.4947386E0,5.606354E-2,-3.4644026E-2,7.30327E-2,1.0144661E-2,7.693709E-2,5.9546936E-2,-2.089241E-2,7.699313E-2,5.320211E-2,-4.0396906E-2,6.3970024E-3,-5.558575E-2,-2.8045312E-2,-6.2407322E-2,-6.7479955E-3,6.9825195E-2,7.5872146E-2,1.1619956E-2],"categories":[],"categories_nodes":[],"categories_segments":[],"categories_sizes":[],"default_left":[0,0,0,0,0,0,0,0,0,0,0,0,0,0,0,0,0,0,0,0,0,0,0,0,0,0,0,0,0,0,0,0,0,0,0,0,0,0,0,0,0,0,0,0,0,0,0],"id":12,"left_children":[1,3,5,7,9,11,13,15,17,19,21,23,25,-1,27,29,31,33,-1,-1,35,37,39,41,-1,-1,43,-1,45,-1,-1,-1,-1,-1,-1,-1,-1,-1,-1,-1,-1,-1,-1,-1,-1,-1,-1],"loss_changes":[4.5463712E2,2.8544366E2,2.1482861E2,3.283197E1,3.1523373E1,8.286603E1,2.496688E1,1.971524E1,1.3970642E0,6.8586717E0,6.185295E0,5.7453766E1,5.61557E0,0E0,1.0922241E0,7.65526E1,2.0550003E0,9.168091E-1,0E0,0E0,1.0640917E1,6.4486446E0,6.2058487E0,5.022043E1,0E0,0E0,5.7911987E0,0E0,1.342514E0,0E0,0E0,0E0,0E0,0E0,0E0,0E0,0E0,0E0,0E0,0E0,0E0,0E0,0E0,0E0,0E0,0E0,0E0],"parents":[2147483647,0,0,1,1,2,2,3,3,4,4,5,5,6,6,7,7,8,8,9,9,10,10,11,11,12,12,14,14,15,15,16,16,17,17,20,20,21,21,22,22,23,23,26,26,28,28],"right_children":[2,4,6,8,10,12,14,16,18,20,22,24,26,-1,28,30,32,34,-1,-1,36,38,40,42,-1,-1,44,-1,46,-1,-1,-1,-1,-1,-1,-1,-1,-1,-1,-1,-1,-1,-1,-1,-1,-1,-1],"split_conditions":[-7.967835E-1,-5.638727E-2,5.77992E-1,-1.1174039E-1,-1.3921387E-1,2.713959E0,-4.9431223E-1,2.3397684E0,-5.8347825E-2,-6.973735E-1,2.0289037E-2,1.1594997E1,2.3449845E0,-5.0615173E-2,-3.0956355E-1,-1.4726579E-1,-8.710838E-3,-3.2914183E-1,1.9081408E-2,7.272336E-2,3.9924687E-1,-6.5778404E-1,-6.9312376E-1,-2.2683434E-1,8.59777E-2,7.440389E-2,6.2610946E0,1.35622E-2,2.3397684E0,5.606354E-2,-3.4644026E-2,7.30327E-2,1.0144661E-2,7.693709E-2,5.9546936E-2,-2.089241E-2,7.699313E-2,5.320211E-2,-4.0396906E-2,6.3970024E-3,-5.558575E-2,-2.8045312E-2,-6.2407322E-2,-6.7479955E-3,6.9825195E-2,7.5872146E-2,1.1619956E-2],"split_indices":[15,0,19,1,4,9,7,5,4,7,6,22,13,0,0,6,6,28,0,0,0,7,7,0,0,0,13,0,5,0,0,0,0,0,0,0,0,0,0,0,0,0,0,0,0,0,0],"split_type":[0,0,0,0,0,0,0,0,0,0,0,0,0,0,0,0,0,0,0,0,0,0,0,0,0,0,0,0,0,0,0,0,0,0,0,0,0,0,0,0,0,0,0,0,0,0,0],"sum_hessian":[1.3102877E3,4.5481226E2,8.554754E2,3.5666953E2,9.814275E1,7.924426E2,6.303278E1,1.6149695E2,1.9517256E2,1.6870173E1,8.127258E1,7.6681415E2,2.5628466E1,3.6465628E0,5.9386215E1,1.16187775E2,4.5309177E1,1.9321976E2,1.9528099E0,4.345202E0,1.2524971E1,5.422567E0,7.585001E1,7.5761774E2,9.196399E0,1.6517717E1,9.110749E0,1.2393258E0,5.814689E1,8.5088524E1,3.109925E1,4.3610474E1,1.6987023E0,1.6351025E2,2.9709497E1,9.78186E0,2.7431097E0,2.3800144E0,3.0425522E0,4.0690594E0,7.178095E1,6.292947E2,1.283231E2,6.1521173E0,2.9586315E0,5.6921032E1,1.2258584E0],"tree_param":{"num_deleted":"0","num_feature":"39","num_nodes":"47","size_leaf_vector":"1"}},{"base_weights":[9.409138E-3,7.7294636E-1,-4.108442E-1,1.1608107E0,-6.508772E-1,-5.647725E-1,9.9506766E-1,1.3348147E0,7.0819813E-1,5.2107906E-1,-9.499683E-1,-6.217315E-1,1.4330646E0,7.32061E-2,-1.6686298E-1,1.1138896E0,7.380336E-2,2.0000087E-1,1.4588096E0,-3.4591192E-1,1.1465205E0,-1.1360993E0,-2.3303568E-1,-3.7825447E-1,-9.6017104E-1,-6.7872816E-4,1.5212247E0,-7.155614E-1,9.679534E-1,5.848066E-2,-7.191823E-2,4.8095237E-2,-3.3928998E-2,1.9312514E-2,7.401728E-2,-3.060444E-2,4.1675694E-2,2.6458759E-2,7.5535074E-2,-5.7461645E-2,-1.5755193E-2,4.3876518E-2,-5.271804E-2,-2.1916457E-2,7.293016E-2,-2.957576E-2,-5.922581E-2,7.937471E-2,9.967073E-3,-5.4113682E-2,1.2643221E-2,1.4570452E-2,6.530551E-2],"categories":[],"categories_nodes":[],"categories_segments":[],"categories_sizes":[],"default_left":[0,0,0,0,0,0,0,0,0,0,0,0,0,0,0,0,0,0,0,0,0,0,0,0,0,0,0,0,0,0,0,0,0,0,0,0,0,0,0,0,0,0,0,0,0,0,0,0,0,0,0,0,0],"id":13,"left_children":[1,3,5,7,9,11,13,15,17,19,21,23,25,-1,27,29,-1,31,33,35,37,39,41,43,45,-1,47,49,51,-1,-1,-1,-1,-1,-1,-1,-1,-1,-1,-1,-1,-1,-1,-1,-1,-1,-1,-1,-1,-1,-1,-1,-1],"loss_changes":[4.1356903E2,2.5343793E2,1.8046822E2,2.740326E1,3.5055634E1,8.622847E1,4.5152313E1,6.4341125E0,3.8649376E1,1.1617155E1,1.0264633E1,5.9776733E1,2.7104454E0,0E0,1.6007063E1,1.6620697E1,0E0,4.2175735E1,3.7649536E-1,3.4737208E0,1.9552631E0,3.1053925E-1,1.6907E1,4.7660786E1,2.4501251E1,0E0,1.4257355E0,6.365506E0,1.5505147E0,0E0,0E0,0E0,0E0,0E0,0E0,0E0,0E0,0E0,0E0,0E0,0E0,0E0,0E0,0E0,0E0,0E0,0E0,0E0,0E0,0E0,0E0,0E0,0E0],"parents":[2147483647,0,0,1,1,2,2,3,3,4,4,5,5,6,6,7,7,8,8,9,9,10,10,11,11,12,12,14,14,15,15,17,17,18,18,19,19,20,20,21,21,22,22,23,23,24,24,26,26,27,27,28,28],"right_children":[2,4,6,8,10,12,14,16,18,20,22,24,26,-1,28,30,-1,32,34,36,38,40,42,44,46,-1,48,50,52,-1,-1,-1,-1,-1,-1,-1,-1,-1,-1,-1,-1,-1,-1,-1,-1,-1,-1,-1,-1,-1,-1,-1,-1],"split_conditions":[-7.967835E-1,-5.638727E-2,1.9789186E0,-2.1213332E-1,-1.249434E-1,2.1251373E0,1.9951637E0,1.1564028E-2,2.3397684E0,3.0145726E-1,8.2334816E-1,-2.6965454E-1,7.7343005E-1,7.32061E-2,2.743396E0,5.318136E-1,7.380336E-2,-1.439707E-1,-1.5824118E-1,3.0446166E-1,2.0829506E-1,2.2867675E0,3.0446166E-1,2.3397684E0,-1.4872752E-1,-6.7872816E-4,-3.9569627E-2,1.8823439E0,7.5261694E-1,5.848066E-2,-7.191823E-2,4.8095237E-2,-3.3928998E-2,1.9312514E-2,7.401728E-2,-3.060444E-2,4.1675694E-2,2.6458759E-2,7.5535074E-2,-5.7461645E-2,-1.5755193E-2,4.3876518E-2,-5.271804E-2,-2.1916457E-2,7.293016E-2,-2.957576E-2,-5.922581E-2,7.937471E-2,9.967073E-3,-5.4113682E-2,1.2643221E-2,1.4570452E-2,6.530551E-2],"split_indices":[15,0,13,2,4,9,13,14,5,3,3,2,17,0,17,10,0,4,4,0,14,4,0,5,4,0,2,16,15,0,0,0,0,0,0,0,0,0,0,0,0,0,0,0,0,0,0,0,0,0,0,0,0],"split_type":[0,0,0,0,0,0,0,0,0,0,0,0,0,0,0,0,0,0,0,0,0,0,0,0,0,0,0,0,0,0,0,0,0,0,0,0,0,0,0,0,0,0,0,0,0,0,0,0,0,0,0,0,0],"sum_hessian":[1.286873E3,4.5655038E2,8.303227E2,3.5895267E2,9.759772E1,7.4892395E2,8.139873E1,2.5786786E2,1.0108479E2,1.9692513E1,7.7905205E1,7.2883344E2,2.00905E1,5.7804024E1,2.3594707E1,1.040363E2,1.5383156E2,6.1030735E1,4.005406E1,8.439941E0,1.125257E1,6.1383945E1,1.6521257E1,4.2511716E2,3.0371628E2,1.2026119E0,1.8887888E1,1.6153654E1,7.441054E0,1.0234355E2,1.6927471E0,3.2634933E1,2.8395802E1,1.1611309E0,3.8892933E1,7.2783637E0,1.1615782E0,5.0852714E0,6.167299E0,6.0023933E1,1.3600136E0,6.9947624E0,9.526496E0,4.1239124E2,1.272594E1,1.16278275E2,1.87438E2,1.7794853E1,1.0930351E0,1.1631583E1,4.522072E0,3.100232E0,4.3408217E0],"tree_param":{"num_deleted":"0","num_feature":"39","num_nodes":"53","size_leaf_vector":"1"}},{"base_weights":[-2.0214217E-3,7.23712E-1,-3.8895038E-1,1.1033795E0,-6.59033E-1,-5.1753396E-1,1.3029915E0,7.809217E-1,1.4007082E0,-9.8418653E-1,3.2244378E-1,-5.942544E-1,8.7049186E-1,7.145133E-2,-4.5546256E-2,5.728181E-1,1.3671011E0,1.4207366E0,-4.435813E-2,6.168453E-2,-1.1400077E0,1.0533137E0,-6.644827E-1,-3.69067E-1,-9.592562E-1,1.0101634E0,-4.598291E-2,4.833729E-2,-2.7645558E-2,7.0793994E-2,4.5348876E-3,7.248387E-2,4.81759E-2,-1.6207423E-2,6.2300455E-2,-5.7663616E-2,-1.5115614E-2,6.2416222E-2,-2.1867177E-2,1.0588901E-2,-5.092111E-2,-1.9914472E-2,1.1263155E-1,-5.1953923E-2,6.0658377E-2,6.905545E-2,3.111424E-2],"categories":[],"categories_nodes":[],"categories_segments":[],"categories_sizes":[],"default_left":[0,0,0,0,0,0,0,0,0,0,0,0,0,0,0,0,0,0,0,0,0,0,0,0,0,0,0,0,0,0,0,0,0,0,0,0,0,0,0,0,0,0,0,0,0,0,0],"id":14,"left_children":[1,3,5,7,9,11,13,15,17,19,21,23,25,-1,-1,27,29,31,-1,33,35,37,39,41,43,45,-1,-1,-1,-1,-1,-1,-1,-1,-1,-1,-1,-1,-1,-1,-1,-1,-1,-1,-1,-1,-1],"loss_changes":[3.580264E2,2.3349394E2,1.8159561E2,3.2293823E1,3.0998878E1,8.28965E1,1.7770363E1,1.9871521E1,9.504761E0,1.1879562E1,1.8500378E1,5.9948486E1,1.116152E1,0E0,0E0,5.6710922E1,2.5887222E0,9.684143E-1,0E0,5.130979E0,3.527069E-1,4.7799015E0,3.662249E0,3.57833E1,4.9694183E1,4.671261E0,0E0,0E0,0E0,0E0,0E0,0E0,0E0,0E0,0E0,0E0,0E0,0E0,0E0,0E0,0E0,0E0,0E0,0E0,0E0,0E0,0E0],"parents":[2147483647,0,0,1,1,2,2,3,3,4,4,5,5,6,6,7,7,8,8,9,9,10,10,11,11,12,12,15,15,16,16,17,17,19,19,20,20,21,21,22,22,23,23,24,24,25,25],"right_children":[2,4,6,8,10,12,14,16,18,20,22,24,26,-1,-1,28,30,32,-1,34,36,38,40,42,44,46,-1,-1,-1,-1,-1,-1,-1,-1,-1,-1,-1,-1,-1,-1,-1,-1,-1,-1,-1,-1,-1],"split_conditions":[-7.967835E-1,-5.638727E-2,3.4646025E0,1.1564028E-2,8.2334816E-1,1.878533E0,1.4368954E0,2.3397684E0,-3.8958006E-2,-1.439707E-1,-6.310465E-2,-1.3921387E-1,-2.8582075E-1,7.145133E-2,-4.5546256E-2,-1.440436E-1,-1.1933045E-2,-1.6788621E-1,-4.435813E-2,3.9924687E-1,2.2867675E0,-6.5778404E-1,5.777399E-2,3.0759943E-1,1.0672748E0,-2.6522982E-1,-4.598291E-2,4.833729E-2,-2.7645558E-2,7.0793994E-2,4.5348876E-3,7.248387E-2,4.81759E-2,-1.6207423E-2,6.2300455E-2,-5.7663616E-2,-1.5115614E-2,6.2416222E-2,-2.1867177E-2,1.0588901E-2,-5.092111E-2,-1.9914472E-2,1.1263155E-1,-5.1953923E-2,6.0658377E-2,6.905545E-2,3.111424E-2],"split_indices":[15,0,1,14,3,17,0,5,20,4,4,4,6,0,0,6,6,2,0,0,4,7,2,23,14,2,0,0,0,0,0,0,0,0,0,0,0,0,0,0,0,0,0,0,0,0,0],"split_type":[0,0,0,0,0,0,0,0,0,0,0,0,0,0,0,0,0,0,0,0,0,0,0,0,0,0,0,0,0,0,0,0,0,0,0,0,0,0,0,0,0,0,0,0,0,0,0],"sum_hessian":[1.2729873E3,4.4237933E2,8.306079E2,3.4723834E2,9.5141E1,7.725872E2,5.8020695E1,1.683195E2,1.7891884E2,7.146319E1,2.3677809E1,7.326626E2,3.9924614E1,5.5230995E1,2.7896965E0,1.25678665E2,4.264084E1,1.7774187E2,1.1769722E0,9.344834E0,6.211836E1,1.3564978E1,1.0112831E1,4.5435812E2,2.783045E2,3.7439228E1,2.4853847E0,9.320468E1,3.2473984E1,4.0966015E1,1.6748247E0,1.6511958E2,1.2622274E1,7.5963674E0,1.7484674E0,6.077922E1,1.3391364E0,1.213944E1,1.4255378E0,3.02511E0,7.0877213E0,4.5018823E2,4.169892E0,2.6894424E2,9.360242E0,1.7828438E1,1.961079E1],"tree_param":{"num_deleted":"0","num_feature":"39","num_nodes":"47","size_leaf_vector":"1"}},{"base_weights":[-6.234826E-3,7.0210123E-1,-3.895892E-1,1.1058195E0,-5.2421355E-1,-5.222399E-1,1.213255E0,8.1070864E-1,1.3683085E0,-8.663857E-1,8.334073E-1,-5.924518E-1,9.9730366E-1,-4.6897363E-2,1.3401165E0,4.7798592E-1,1.2082374E0,6.972729E-2,-5.1025864E-2,2.2413395E-1,-9.238649E-1,-8.3304226E-1,1.3381835E0,-4.811158E-1,-1.2030993E0,1.0939319E0,-3.725898E-2,1.3859196E0,-9.924696E-3,1.4562398E-3,6.2268972E-2,5.140998E-2,7.052424E-2,-1.2675233E-2,3.8743146E-2,-5.2791204E-2,-2.9834187E-2,-5.2271165E-2,-1.5887573E-2,7.3664896E-2,-1.9555228E-2,-2.7740642E-2,7.563071E-2,-6.0596593E-2,-8.818005E-3,1.0707437E-2,6.302479E-2,1.8413851E-2,7.001332E-2],"categories":[],"categories_nodes":[],"categories_segments":[],"categories_sizes":[],"default_left":[0,0,0,0,0,0,0,0,0,0,0,0,0,0,0,0,0,0,0,0,0,0,0,0,0,0,0,0,0,0,0,0,0,0,0,0,0,0,0,0,0,0,0,0,0,0,0,0,0],"id":15,"left_children":[1,3,5,7,9,11,13,15,17,19,21,23,25,-1,27,29,31,-1,-1,33,35,37,39,41,43,45,-1,47,-1,-1,-1,-1,-1,-1,-1,-1,-1,-1,-1,-1,-1,-1,-1,-1,-1,-1,-1,-1,-1],"loss_changes":[3.3555072E2,2.1541359E2,1.7110583E2,2.4204224E1,5.0963306E1,7.9668625E1,1.8063454E1,2.0093803E1,1.2171722E1,5.6523666E0,1.9857252E1,4.76297E1,6.3896027E0,0E0,4.40242E0,2.9838776E1,1.1187363E0,0E0,0E0,1.5522764E0,2.9412918E0,3.021536E-1,4.6615467E0,8.920465E1,7.718506E-1,4.38612E0,0E0,3.1649017E-1,0E0,0E0,0E0,0E0,0E0,0E0,0E0,0E0,0E0,0E0,0E0,0E0,0E0,0E0,0E0,0E0,0E0,0E0,0E0,0E0,0E0],"parents":[2147483647,0,0,1,1,2,2,3,3,4,4,5,5,6,6,7,7,8,8,9,9,10,10,11,11,12,12,14,14,15,15,16,16,19,19,20,20,21,21,22,22,23,23,24,24,25,25,27,27],"right_children":[2,4,6,8,10,12,14,16,18,20,22,24,26,-1,28,30,32,-1,-1,34,36,38,40,42,44,46,-1,48,-1,-1,-1,-1,-1,-1,-1,-1,-1,-1,-1,-1,-1,-1,-1,-1,-1,-1,-1,-1,-1],"split_conditions":[-7.967835E-1,-8.710838E-3,5.77992E-1,1.271802E0,-6.4281636E-1,2.1668208E0,-1.0572242E0,1.9081092E-1,-3.8958006E-2,-2.1655802E-1,3.0145726E-1,-2.0204334E-1,-2.8582075E-1,-4.6897363E-2,1.9951637E0,-6.611788E-2,3.0145726E-1,6.972729E-2,-5.1025864E-2,-2.2540744E-1,3.0145726E-1,6.539995E-2,9.1021815E-3,-3.2126504E-1,2.3095157E0,4.1250467E-1,-3.725898E-2,8.072988E-1,-9.924696E-3,1.4562398E-3,6.2268972E-2,5.140998E-2,7.052424E-2,-1.2675233E-2,3.8743146E-2,-5.2791204E-2,-2.9834187E-2,-5.2271165E-2,-1.5887573E-2,7.3664896E-2,-1.9555228E-2,-2.7740642E-2,7.563071E-2,-6.0596593E-2,-8.818005E-3,1.0707437E-2,6.302479E-2,1.8413851E-2,7.001332E-2],"split_indices":[15,6,19,21,8,17,8,8,20,2,3,6,6,0,13,2,3,0,0,2,3,6,2,6,26,15,0,9,0,0,0,0,0,0,0,0,0,0,0,0,0,0,0,0,0,0,0,0,0],"split_type":[0,0,0,0,0,0,0,0,0,0,0,0,0,0,0,0,0,0,0,0,0,0,0,0,0,0,0,0,0,0,0,0,0,0,0,0,0,0,0,0,0,0,0,0,0,0,0,0,0],"sum_hessian":[1.233708E3,4.3293283E2,8.007752E2,3.2578015E2,1.0715267E2,7.4019147E2,6.058377E1,1.5528505E2,1.704951E2,8.587159E1,2.1281078E1,7.0808386E2,3.2107548E1,3.0177639E0,5.7566006E1,8.573183E1,6.955323E1,1.6905455E2,1.4405453E0,4.1543365E0,8.1717255E1,4.7963305E0,1.6484747E1,6.0040344E2,1.0768043E2,3.0773235E1,1.3343108E0,5.599823E1,1.5677779E0,5.4747227E1,3.09846E1,4.001568E1,2.953755E1,2.5138264E0,1.6405101E0,5.6644356E1,2.5072899E1,2.6679237E0,2.128407E0,1.5427393E1,1.0573545E0,5.79697E2,2.0706438E1,1.0658317E2,1.0972569E0,5.2625194E0,2.5510715E1,1.1492584E0,5.484897E1],"tree_param":{"num_deleted":"0","num_feature":"39","num_nodes":"49","size_leaf_vector":"1"}},{"base_weights":[3.3245126E-3,6.8202424E-1,-3.678602E-1,1.042171E0,-6.1611146E-1,-4.93176E-1,1.197271E0,6.929263E-1,1.334388E0,-8.549679E-1,5.755691E-1,-5.590283E-1,9.870684E-1,-4.8955962E-2,1.3632606E0,3.656835E-1,1.1461626E0,1.3529732E0,-4.2521056E-2,-1.0006605E0,-5.2994025E-1,6.533609E-2,-7.005359E-1,-4.4139305E-1,-5.960214E-2,1.4653504E0,5.3152055E-1,6.9317184E-2,9.405414E-3,-1.4526302E-2,6.4543664E-2,6.036241E-2,1.3585706E-2,7.016771E-2,5.1931906E-2,-5.12391E-2,-5.506067E-4,3.0329118E-2,-3.137559E-2,8.766911E-3,-4.617473E-2,-2.5608888E-2,7.8869574E-2,1.6530884E-2,8.105499E-2,-4.7405373E-2,5.520417E-2],"categories":[],"categories_nodes":[],"categories_segments":[],"categories_sizes":[],"default_left":[0,0,0,0,0,0,0,0,0,0,0,0,0,0,0,0,0,0,0,0,0,0,0,0,0,0,0,0,0,0,0,0,0,0,0,0,0,0,0,0,0,0,0,0,0,0,0],"id":16,"left_children":[1,3,5,7,9,11,13,15,17,19,21,23,25,-1,27,29,31,33,-1,35,37,-1,39,41,-1,43,45,-1,-1,-1,-1,-1,-1,-1,-1,-1,-1,-1,-1,-1,-1,-1,-1,-1,-1,-1,-1],"loss_changes":[3.066691E2,2.0185168E2,1.5493752E2,3.349649E1,2.7276203E1,7.164322E1,2.2515E1,2.267807E1,8.563141E0,3.2006874E0,1.6132317E1,5.1516296E1,6.0679913E0,0E0,1.2282333E0,5.6170273E1,3.134697E0,1.4151001E0,0E0,1.2605286E0,3.3205843E0,0E0,1.4491742E0,8.5254265E1,0E0,2.0727558E0,1.6011478E1,0E0,0E0,0E0,0E0,0E0,0E0,0E0,0E0,0E0,0E0,0E0,0E0,0E0,0E0,0E0,0E0,0E0,0E0,0E0,0E0],"parents":[2147483647,0,0,1,1,2,2,3,3,4,4,5,5,6,6,7,7,8,8,9,9,10,10,11,11,12,12,14,14,15,15,16,16,17,17,19,19,20,20,22,22,23,23,25,25,26,26],"right_children":[2,4,6,8,10,12,14,16,18,20,22,24,26,-1,28,30,32,34,-1,36,38,-1,40,42,-1,44,46,-1,-1,-1,-1,-1,-1,-1,-1,-1,-1,-1,-1,-1,-1,-1,-1,-1,-1,-1,-1],"split_conditions":[-7.967835E-1,-5.638727E-2,5.77992E-1,-1.1174039E-1,-6.4281636E-1,2.1668208E0,-4.9431223E-1,1.9081092E-1,-3.8958006E-2,3.0145726E-1,-6.5778404E-1,-2.2683434E-1,-2.6965454E-1,-4.8955962E-2,7.283763E-1,2.3397684E0,-1.6788621E-1,-3.2914183E-1,-4.2521056E-2,3.1651645E0,-1.9000976E-1,6.533609E-2,-5.4940784E-1,-3.2126504E-1,-5.960214E-2,4.1250467E-1,1.1458157E0,6.9317184E-2,9.405414E-3,-1.4526302E-2,6.4543664E-2,6.036241E-2,1.3585706E-2,7.016771E-2,5.1931906E-2,-5.12391E-2,-5.506067E-4,3.0329118E-2,-3.137559E-2,8.766911E-3,-4.617473E-2,-2.5608888E-2,7.8869574E-2,1.6530884E-2,8.105499E-2,-4.7405373E-2,5.520417E-2],"split_indices":[15,0,19,1,8,17,7,8,20,3,7,0,2,0,14,5,2,28,0,6,2,0,8,6,0,15,18,0,0,0,0,0,0,0,0,0,0,0,0,0,0,0,0,0,0,0,0],"split_type":[0,0,0,0,0,0,0,0,0,0,0,0,0,0,0,0,0,0,0,0,0,0,0,0,0,0,0,0,0,0,0,0,0,0,0,0,0,0,0,0,0,0,0,0,0,0,0],"sum_hessian":[1.2153171E3,4.2937704E2,7.8594006E2,3.3627905E2,9.3098E1,7.2831104E2,5.7629E1,1.547272E2,1.8155183E2,7.7788826E1,1.5309177E1,6.978862E2,3.0424833E1,3.736664E0,5.3892338E1,9.090174E1,6.3825466E1,1.80398E2,1.1538306E0,5.227709E1,2.5511738E1,9.717487E0,5.59169E0,5.8995087E2,1.07935326E2,1.3760714E1,1.666412E1,5.2677895E1,1.2144438E0,5.3582943E1,3.73188E1,5.9302258E1,4.523206E0,1.524923E2,2.7905714E1,5.099856E1,1.278524E0,1.6045847E0,2.3907152E1,1.1779195E0,4.4137707E0,5.7068713E2,1.9263735E1,2.0376804E0,1.1723033E1,4.4663057E0,1.2197814E1],"tree_param":{"num_deleted":"0","num_feature":"39","num_nodes":"47","size_leaf_vector":"1"}},{"base_weights":[1.0246703E-2,6.613399E-1,-3.387302E-1,1.0515087E0,-5.623722E-1,-4.583509E-1,1.1883783E0,1.2041781E0,6.2195015E-1,-9.048163E-1,3.8529065E-1,-5.3204226E-1,8.5841554E-1,-4.624643E-2,1.3252604E0,7.215123E-1,1.2659144E0,9.5519885E-2,1.3304957E0,2.1281424E-1,-1.0298545E0,1.0500907E0,-7.9082143E-1,8.931174E-3,-6.9166017E-1,9.9747074E-1,-4.399316E-2,6.7435674E-2,8.518836E-3,6.422626E-2,4.515451E-3,6.647402E-2,5.2091535E-2,-3.822836E-2,5.017249E-2,2.8075187E-2,6.9703996E-2,-3.2417532E-2,3.2321475E-2,-5.4164704E-2,3.382612E-2,2.4629394E-2,7.049502E-2,2.71493E-2,-4.992899E-2,-2.3158303E-2,5.7066496E-2,-3.6368474E-2,7.909047E-2,7.434946E-2,3.269585E-2],"categories":[],"categories_nodes":[],"categories_segments":[],"categories_sizes":[],"default_left":[0,0,0,0,0,0,0,0,0,0,0,0,0,0,0,0,0,0,0,0,0,0,0,0,0,0,0,0,0,0,0,0,0,0,0,0,0,0,0,0,0,0,0,0,0,0,0,0,0,0,0],"id":17,"left_children":[1,3,5,7,9,11,13,15,17,19,21,23,25,-1,27,29,31,33,35,37,39,41,43,45,47,49,-1,-1,-1,-1,-1,-1,-1,-1,-1,-1,-1,-1,-1,-1,-1,-1,-1,-1,-1,-1,-1,-1,-1,-1,-1],"loss_changes":[2.7011752E2,1.9865532E2,1.419328E2,1.9901855E1,3.3106117E1,7.017494E1,1.7570381E1,5.977539E0,3.1442886E1,1.0622726E1,2.232817E1,5.8812347E1,1.0174334E1,0E0,1.2186508E0,1.0029988E1,1.5164795E0,3.952863E1,9.775238E-1,3.525749E0,6.8539963E0,2.915287E0,3.4517379E0,8.400579E1,4.3843735E1,5.095585E0,0E0,0E0,0E0,0E0,0E0,0E0,0E0,0E0,0E0,0E0,0E0,0E0,0E0,0E0,0E0,0E0,0E0,0E0,0E0,0E0,0E0,0E0,0E0,0E0,0E0],"parents":[2147483647,0,0,1,1,2,2,3,3,4,4,5,5,6,6,7,7,8,8,9,9,10,10,11,11,12,12,14,14,15,15,16,16,17,17,18,18,19,19,20,20,21,21,22,22,23,23,24,24,25,25],"right_children":[2,4,6,8,10,12,14,16,18,20,22,24,26,-1,28,30,32,34,36,38,40,42,44,46,48,50,-1,-1,-1,-1,-1,-1,-1,-1,-1,-1,-1,-1,-1,-1,-1,-1,-1,-1,-1,-1,-1,-1,-1,-1,-1],"split_conditions":[-7.967835E-1,-8.590371E-2,5.77992E-1,-1.440436E-1,8.2334816E-1,1.878533E0,-4.9431223E-1,-6.778306E-1,2.3397684E0,-1.5348436E-1,3.0446166E-1,-3.2536107E-1,-2.8582075E-1,-4.624643E-2,2.3397684E0,-7.02416E-1,-1.439707E-1,8.047027E-1,-1.3371204E-1,-6.7001486E-1,-1.7712735E-1,2.3397684E0,-8.213196E-2,-1.5824118E-1,1.1594997E1,7.489395E-1,-4.399316E-2,6.7435674E-2,8.518836E-3,6.422626E-2,4.515451E-3,6.647402E-2,5.2091535E-2,-3.822836E-2,5.017249E-2,2.8075187E-2,6.9703996E-2,-3.2417532E-2,3.2321475E-2,-5.4164704E-2,3.382612E-2,2.4629394E-2,7.049502E-2,2.71493E-2,-4.992899E-2,-2.3158303E-2,5.7066496E-2,-3.6368474E-2,7.909047E-2,7.434946E-2,3.269585E-2],"split_indices":[15,0,19,6,3,17,7,7,5,4,0,0,6,0,5,7,4,21,0,7,8,5,4,4,22,13,0,0,0,0,0,0,0,0,0,0,0,0,0,0,0,0,0,0,0,0,0,0,0,0,0],"split_type":[0,0,0,0,0,0,0,0,0,0,0,0,0,0,0,0,0,0,0,0,0,0,0,0,0,0,0,0,0,0,0,0,0,0,0,0,0,0,0,0,0,0,0,0,0,0,0,0,0,0,0],"sum_hessian":[1.1868257E3,4.1383337E2,7.729923E2,3.138925E2,9.994087E1,7.174901E2,5.5502228E1,2.3025444E2,8.3638054E1,7.3445915E1,2.6494951E1,6.8002893E2,3.746113E1,3.0260627E0,5.2476166E1,2.7550053E1,2.0270438E2,4.8636932E1,3.500112E1,7.3195434E0,6.612637E1,1.6995407E1,9.499542E0,1.5514818E2,5.248808E2,3.5080967E1,2.3801603E0,5.1267212E1,1.208953E0,1.4014517E1,1.3535535E1,1.5406711E2,4.8637276E1,2.5057615E1,2.3579317E1,3.4238374E0,3.1577284E1,2.2854307E0,5.034113E0,6.4472404E1,1.653967E0,7.5955677E0,9.39984E0,1.0628035E0,8.436739E0,1.09915405E2,4.5232765E1,5.1743353E2,7.447258E0,1.3094616E1,2.1986351E1],"tree_param":{"num_deleted":"0","num_feature":"39","num_nodes":"51","size_leaf_vector":"1"}},{"base_weights":[-2.0913794E-3,4.8333764E-1,-3.737273E-1,7.0391387E-1,-7.2718585E-1,-5.0535285E-1,1.1341333E0,1.5082427E-2,9.720101E-1,-9.228949E-1,4.523205E-1,-5.655602E-1,1.2177953E0,-4.7630038E-2,1.2932163E0,-4.521805E-1,7.5103056E-1,6.9506204E-1,1.270761E0,3.7334263E-1,-1.0578521E0,6.349312E-2,-6.129176E-1,-3.3695647E-1,-8.6659706E-1,1.6704366E-1,1.4140494E0,6.586727E-2,8.287725E-3,-3.2250408E-2,3.467091E-2,1.4326681E-1,2.007452E-2,-3.350834E-2,3.893939E-2,6.843958E-2,4.5352094E-2,-2.3130625E-2,6.976909E-2,-5.546227E-2,-2.1534903E-2,9.131494E-3,-4.2329356E-2,4.3965753E-2,-2.4162708E-2,-4.613404E-2,1.3309503E-2,-2.6542816E-2,4.3089915E-2,7.71329E-2,3.4106713E-2],"categories":[],"categories_nodes":[],"categories_segments":[],"categories_sizes":[],"default_left":[0,0,0,0,0,0,0,0,0,0,0,0,0,0,0,0,0,0,0,0,0,0,0,0,0,0,0,0,0,0,0,0,0,0,0,0,0,0,0,0,0,0,0,0,0,0,0,0,0,0,0],"id":18,"left_children":[1,3,5,7,9,11,13,15,17,19,21,23,25,-1,27,29,31,33,35,37,39,-1,41,43,45,47,49,-1,-1,-1,-1,-1,-1,-1,-1,-1,-1,-1,-1,-1,-1,-1,-1,-1,-1,-1,-1,-1,-1,-1,-1],"loss_changes":[2.1389313E2,1.3778673E2,1.3385306E2,8.038846E1,1.8822895E1,6.48356E1,1.923153E1,4.2634804E1,2.504596E1,1.2415634E1,1.1244468E1,4.0869064E1,4.1337967E0,0E0,1.1637573E0,1.7203568E1,3.4426704E1,1.9363396E1,4.0908356E0,6.813033E0,1.5365906E0,0E0,1.2500737E0,6.1207E1,1.6606232E1,2.6244166E0,6.1593246E-1,0E0,0E0,0E0,0E0,0E0,0E0,0E0,0E0,0E0,0E0,0E0,0E0,0E0,0E0,0E0,0E0,0E0,0E0,0E0,0E0,0E0,0E0,0E0,0E0],"parents":[2147483647,0,0,1,1,2,2,3,3,4,4,5,5,6,6,7,7,8,8,9,9,10,10,11,11,12,12,14,14,15,15,16,16,17,17,18,18,19,19,20,20,22,22,23,23,24,24,25,25,26,26],"right_children":[2,4,6,8,10,12,14,16,18,20,22,24,26,-1,28,30,32,34,36,38,40,-1,42,44,46,48,50,-1,-1,-1,-1,-1,-1,-1,-1,-1,-1,-1,-1,-1,-1,-1,-1,-1,-1,-1,-1,-1,-1,-1,-1],"split_conditions":[-3.0927753E-1,-5.638727E-2,5.77992E-1,-3.241139E-1,-6.4281636E-1,1.0014359E0,-5.174587E-1,-1.5824118E-1,1.271802E0,-1.5348436E-1,-6.5778404E-1,-1.3921387E-1,1.2185256E0,-4.7630038E-2,2.3397684E0,-4.1242653E-1,-7.6878065E-1,-9.7753036E-1,5.318136E-1,3.9924687E-1,1.3452392E0,6.349312E-2,-5.670321E-1,-1.702618E-1,2.4047816E0,1.5773245E0,2.9859622E0,6.586727E-2,8.287725E-3,-3.2250408E-2,3.467091E-2,1.4326681E-1,2.007452E-2,-3.350834E-2,3.893939E-2,6.843958E-2,4.5352094E-2,-2.3130625E-2,6.976909E-2,-5.546227E-2,-2.1534903E-2,9.131494E-3,-4.2329356E-2,4.3965753E-2,-2.4162708E-2,-4.613404E-2,1.3309503E-2,-2.6542816E-2,4.3089915E-2,7.71329E-2,3.4106713E-2],"split_indices":[18,0,19,0,8,14,7,4,21,4,7,4,7,0,5,13,18,8,10,0,3,0,8,7,7,10,16,0,0,0,0,0,0,0,0,0,0,0,0,0,0,0,0,0,0,0,0,0,0,0,0],"split_type":[0,0,0,0,0,0,0,0,0,0,0,0,0,0,0,0,0,0,0,0,0,0,0,0,0,0,0,0,0,0,0,0,0,0,0,0,0,0,0,0,0,0,0,0,0,0,0,0,0,0,0],"sum_hessian":[1.1836403E3,5.1311346E2,6.7052686E2,4.3438095E2,7.873248E1,6.173053E2,5.322153E1,1.2199361E2,3.1238736E2,6.771454E1,1.1017943E1,5.971138E2,2.0191576E1,3.41663E0,4.98049E1,7.485365E1,4.713996E1,1.638353E2,1.4855205E2,6.2187076E0,6.1495827E1,6.125044E0,4.8929E0,3.4059177E2,2.56522E2,3.4690926E0,1.6722483E1,4.859647E1,1.2084312E0,6.444347E1,1.0410184E1,5.666554E0,4.1473408E1,9.062256E0,1.5477304E2,1.1483741E2,3.371464E1,3.721857E0,2.4968505E0,5.6127644E1,5.3681836E0,1.1604562E0,3.732444E0,3.6031033E1,3.0456073E2,2.4459756E2,1.1924426E1,1.8483166E0,1.620776E0,1.3281092E1,3.4413917E0],"tree_param":{"num_deleted":"0","num_feature":"39","num_nodes":"51","size_leaf_vector":"1"}},{"base_weights":[5.1091965E-3,6.3990694E-1,-3.221962E-1,9.835501E-1,-4.8214358E-1,-4.2387357E-1,1.0092E0,6.7647433E-1,1.260147E0,-8.6325634E-1,5.017462E-1,-1.1464009E0,-3.022284E-1,-5.060205E-2,1.2800893E0,1.0528518E0,4.0704098E-1,1.3232335E0,7.852894E-1,3.1740892E-1,-9.2610013E-1,-3.8429132E-1,1.1841127E0,3.1140244E-2,-1.1712159E0,-3.7948796E-1,1.2367557E0,1.5535243E-2,6.472468E-2,5.5795442E-2,-8.443617E-3,-2.5158857E-3,6.0885854E-2,6.642736E-2,1.726843E-2,5.877852E-2,-8.09988E-2,3.8880292E-2,-1.704568E-2,-4.8358895E-2,2.628812E-2,-4.8109256E-3,-4.6072703E-2,6.7745574E-2,6.0691503E-3,-5.9041347E-2,-8.6458465E-3,-2.0833565E-2,1.1106479E-1,7.488466E-2,-2.348758E-2],"categories":[],"categories_nodes":[],"categories_segments":[],"categories_sizes":[],"default_left":[0,0,0,0,0,0,0,0,0,0,0,0,0,0,0,0,0,0,0,0,0,0,0,0,0,0,0,0,0,0,0,0,0,0,0,0,0,0,0,0,0,0,0,0,0,0,0,0,0,0,0],"id":19,"left_children":[1,3,5,7,9,11,13,15,17,19,21,23,25,-1,27,29,31,33,35,37,39,41,43,-1,45,47,49,-1,-1,-1,-1,-1,-1,-1,-1,-1,-1,-1,-1,-1,-1,-1,-1,-1,-1,-1,-1,-1,-1,-1,-1],"loss_changes":[2.3957513E2,1.5172646E2,1.03420074E2,2.468155E1,3.517103E1,6.1839645E1,3.1012997E1,1.423745E1,3.6642456E0,5.2757874E0,1.6475845E1,5.1898346E0,7.263434E1,0E0,2.7223969E-1,4.788147E0,3.1916399E1,2.5367737E-1,2.1497612E1,1.5187315E0,4.3257217E0,1.8121142E0,2.5971775E0,0E0,7.60437E-1,5.688768E1,1.3727135E1,0E0,0E0,0E0,0E0,0E0,0E0,0E0,0E0,0E0,0E0,0E0,0E0,0E0,0E0,0E0,0E0,0E0,0E0,0E0,0E0,0E0,0E0,0E0,0E0],"parents":[2147483647,0,0,1,1,2,2,3,3,4,4,5,5,6,6,7,7,8,8,9,9,10,10,11,11,12,12,14,14,15,15,16,16,17,17,18,18,19,19,20,20,21,21,22,22,24,24,25,25,26,26],"right_children":[2,4,6,8,10,12,14,16,18,20,22,24,26,-1,28,30,32,34,36,38,40,42,44,-1,46,48,50,-1,-1,-1,-1,-1,-1,-1,-1,-1,-1,-1,-1,-1,-1,-1,-1,-1,-1,-1,-1,-1,-1,-1,-1],"split_conditions":[-9.479445E-1,-8.590371E-2,2.526762E0,-7.90931E-1,8.2334816E-1,1.3818294E-1,-1.1169945E0,-2.4310628E-1,-3.2914183E-1,-2.2098273E-1,-7.3622495E-1,-1.740865E-1,-3.2126504E-1,-5.060205E-2,1.2743471E0,-1.2471034E-1,-8.8241436E-2,-9.213958E-2,-1.7948788E-1,-3.5601042E-2,-1.7712735E-1,9.8696303E-1,-6.5778404E-1,3.1140244E-2,2.3095157E0,3.0759943E-1,-2.5759795E-1,1.5535243E-2,6.472468E-2,5.5795442E-2,-8.443617E-3,-2.5158857E-3,6.0885854E-2,6.642736E-2,1.726843E-2,5.877852E-2,-8.09988E-2,3.8880292E-2,-1.704568E-2,-4.8358895E-2,2.628812E-2,-4.8109256E-3,-4.6072703E-2,6.7745574E-2,6.0691503E-3,-5.9041347E-2,-8.6458465E-3,-2.0833565E-2,1.1106479E-1,7.488466E-2,-2.348758E-2],"split_indices":[15,0,2,9,3,8,8,2,28,2,8,13,6,0,0,6,2,0,6,0,8,2,7,0,26,23,0,0,0,0,0,0,0,0,0,0,0,0,0,0,0,0,0,0,0,0,0,0,0,0,0],"split_type":[0,0,0,0,0,0,0,0,0,0,0,0,0,0,0,0,0,0,0,0,0,0,0,0,0,0,0,0,0,0,0,0,0,0,0,0,0,0,0,0,0,0,0,0,0,0,0,0,0,0,0],"sum_hessian":[1.1510713E3,3.91267E2,7.5980426E2,2.9962595E2,9.164106E1,7.0652893E2,5.3275288E1,1.4362279E2,1.5600316E2,6.6142975E1,2.549808E1,1.00596855E2,6.0593207E2,5.9728518E0,4.7302437E1,5.870659E1,8.491619E1,1.3613109E2,1.9872063E1,3.137983E0,6.3004993E1,1.1283515E1,1.4214564E1,1.0581374E0,9.953872E1,5.7768475E2,2.8247328E1,1.0230432E0,4.6279392E1,5.5907627E1,2.7989604E0,5.4887993E1,3.0028198E1,1.3503868E2,1.0924133E0,1.7537638E1,2.334425E0,1.7402662E0,1.3977169E0,6.1596085E1,1.4089098E0,8.112187E0,3.171328E0,1.2009498E1,2.205066E0,9.8408455E1,1.1302626E0,5.7037E2,7.314767E0,2.4607088E1,3.6402414E0],"tree_param":{"num_deleted":"0","num_feature":"39","num_nodes":"51","size_leaf_vector":"1"}},{"base_weights":[-1.0955333E-2,6.1835337E-1,-3.4741297E-1,9.262487E-1,-5.7389885E-1,-4.5388794E-1,1.196131E0,1.1106483E0,4.537082E-1,-8.373582E-1,1.759991E-1,-3.3864796E-1,-1.1497308E0,6.371496E-2,-3.5511177E-2,8.847619E-1,6.393035E-2,2.3141424E-1,6.896075E-2,-1.3074674E-1,-8.998904E-1,8.730155E-1,-7.0828706E-1,-4.1050786E-1,1.4306059E0,-5.8432765E-2,1.3543147E-2,3.2208078E-2,6.464007E-2,-1.40507845E-2,5.2763194E-2,-2.1302566E-2,2.6977016E-2,-3.242981E-2,-5.0621707E-2,7.93962E-3,6.020248E-2,-9.702224E-3,-4.7157664E-2,-2.2142095E-2,9.885772E-2,7.83091E-2,1.445197E-2],"categories":[],"categories_nodes":[],"categories_segments":[],"categories_sizes":[],"default_left":[0,0,0,0,0,0,0,0,0,0,0,0,0,0,0,0,0,0,0,0,0,0,0,0,0,0,0,0,0,0,0,0,0,0,0,0,0,0,0,0,0,0,0],"id":20,"left_children":[1,3,5,7,9,11,13,15,17,19,21,23,25,-1,-1,27,-1,29,-1,31,33,35,37,39,41,-1,-1,-1,-1,-1,-1,-1,-1,-1,-1,-1,-1,-1,-1,-1,-1,-1,-1],"loss_changes":[2.3936841E2,1.451119E2,1.2160787E2,2.680484E1,1.624002E1,5.4926956E1,8.029465E0,7.3953247E0,1.812721E1,2.5534096E0,1.4180301E1,7.600971E1,2.9402618E0,0E0,0E0,8.895271E0,0E0,3.1324877E1,0E0,1.4342694E0,9.091759E-1,2.8238888E0,1.0550609E0,4.494706E1,3.1653748E0,0E0,0E0,0E0,0E0,0E0,0E0,0E0,0E0,0E0,0E0,0E0,0E0,0E0,0E0,0E0,0E0,0E0,0E0],"parents":[2147483647,0,0,1,1,2,2,3,3,4,4,5,5,6,6,7,7,8,8,9,9,10,10,11,11,12,12,15,15,17,17,19,19,20,20,21,21,22,22,23,23,24,24],"right_children":[2,4,6,8,10,12,14,16,18,20,22,24,26,-1,-1,28,-1,30,-1,32,34,36,38,40,42,-1,-1,-1,-1,-1,-1,-1,-1,-1,-1,-1,-1,-1,-1,-1,-1,-1,-1],"split_conditions":[-7.967835E-1,-5.638727E-2,3.6271634E0,-1.4082138E-1,8.2334816E-1,-2.664875E-1,1.4368954E0,1.1564028E-2,8.2334816E-1,-1.9000976E-1,5.777399E-2,-1.1174039E-1,3.9125385E0,6.371496E-2,-3.5511177E-2,3.0145726E-1,6.393035E-2,-6.611788E-2,6.896075E-2,3.0145726E-1,-1.8217205E0,-7.3622495E-1,-2.26966E0,3.0759943E-1,-3.2914183E-1,-5.8432765E-2,1.3543147E-2,3.2208078E-2,6.464007E-2,-1.40507845E-2,5.2763194E-2,-2.1302566E-2,2.6977016E-2,-3.242981E-2,-5.0621707E-2,7.93962E-3,6.020248E-2,-9.702224E-3,-4.7157664E-2,-2.2142095E-2,9.885772E-2,7.83091E-2,1.445197E-2],"split_indices":[15,0,1,6,3,6,0,14,3,2,2,1,26,0,0,3,0,2,0,3,8,8,8,23,28,0,0,0,0,0,0,0,0,0,0,0,0,0,0,0,0,0,0],"split_type":[0,0,0,0,0,0,0,0,0,0,0,0,0,0,0,0,0,0,0,0,0,0,0,0,0,0,0,0,0,0,0,0,0,0,0,0,0,0,0,0,0,0,0],"sum_hessian":[1.128491E3,3.928564E2,7.356345E2,3.1240256E2,8.045386E1,6.8882477E2,4.6809765E1,2.2374149E2,8.866107E1,5.9450623E1,2.1003231E1,5.9223083E2,9.65939E1,4.5284473E1,1.5252919E0,9.808943E1,1.2565206E2,7.249808E1,1.6162998E1,5.084696E0,5.436593E1,1.1752423E1,9.250808E0,5.698537E2,2.2377169E1,9.5499054E1,1.094848E0,6.332721E1,3.4762226E1,4.5103096E1,2.739498E1,3.7825942E0,1.3021014E0,1.8908646E1,3.5457283E1,4.1906238E0,7.5618E0,3.4729438E0,5.7778635E0,5.630434E2,6.81028E0,1.966923E1,2.7079391E0],"tree_param":{"num_deleted":"0","num_feature":"39","num_nodes":"43","size_leaf_vector":"1"}},{"base_weights":[1.388711E-2,5.9590137E-1,-2.9599798E-1,9.325242E-1,-4.9511832E-1,-3.9866397E-1,1.1448876E0,6.652585E-1,1.2036796E0,4.063186E-1,-7.857839E-1,-2.8410384E-1,-1.1184366E0,6.2806465E-2,-4.0399093E-2,9.3203735E-1,3.130238E-1,6.351405E-2,2.6109552E-1,1.1344722E-2,5.8493357E-2,3.3275776E-2,-8.340951E-1,-3.5526592E-1,1.3208119E0,-1.1460592E0,2.711534E-2,4.898672E-2,-6.697081E-2,-1.3827773E-2,5.805394E-2,5.9770424E-2,-4.299678E-2,-1.8853724E-2,6.728389E-2,-4.316705E-2,2.753812E-2,-1.9744819E-2,8.1397526E-2,7.604103E-2,6.9557206E-4,-5.7816178E-2,-8.166321E-3],"categories":[],"categories_nodes":[],"categories_segments":[],"categories_sizes":[],"default_left":[0,0,0,0,0,0,0,0,0,0,0,0,0,0,0,0,0,0,0,0,0,0,0,0,0,0,0,0,0,0,0,0,0,0,0,0,0,0,0,0,0,0,0],"id":21,"left_children":[1,3,5,7,9,11,13,15,17,19,21,23,25,-1,-1,27,29,-1,31,33,-1,-1,35,37,39,41,-1,-1,-1,-1,-1,-1,-1,-1,-1,-1,-1,-1,-1,-1,-1,-1,-1],"loss_changes":[2.0123439E2,1.428322E2,1.0816733E2,2.0693695E1,2.4439945E1,5.578891E1,1.1591854E1,1.3954369E1,8.833282E0,6.9548435E0,5.459755E0,6.7663635E1,4.8918304E0,0E0,0E0,1.0603798E1,3.374254E1,0E0,1.2437691E1,8.923148E0,0E0,0E0,3.2353783E0,4.498295E1,6.563717E0,7.380142E-1,0E0,0E0,0E0,0E0,0E0,0E0,0E0,0E0,0E0,0E0,0E0,0E0,0E0,0E0,0E0,0E0,0E0],"parents":[2147483647,0,0,1,1,2,2,3,3,4,4,5,5,6,6,7,7,8,8,9,9,10,10,11,11,12,12,15,15,16,16,18,18,19,19,22,22,23,23,24,24,25,25],"right_children":[2,4,6,8,10,12,14,16,18,20,22,24,26,-1,-1,28,30,-1,32,34,-1,-1,36,38,40,42,-1,-1,-1,-1,-1,-1,-1,-1,-1,-1,-1,-1,-1,-1,-1,-1,-1],"split_conditions":[-7.967835E-1,-8.590371E-2,3.6271634E0,1.1564028E-2,-1.249434E-1,-2.1062109E-1,1.4368954E0,-2.2540744E-1,-1.4867812E-1,2.2350316E-1,-2.2098273E-1,-1.1174039E-1,-2.8599408E-1,6.2806465E-2,-4.0399093E-2,5.318136E-1,-8.8241436E-2,6.351405E-2,5.318136E-1,3.9924687E-1,5.8493357E-2,3.3275776E-2,-4.3065944E-1,2.9020613E-1,1.65783E0,2.3095157E0,2.711534E-2,4.898672E-2,-6.697081E-2,-1.3827773E-2,5.805394E-2,5.9770424E-2,-4.299678E-2,-1.8853724E-2,6.728389E-2,-4.316705E-2,2.753812E-2,-1.9744819E-2,8.1397526E-2,7.604103E-2,6.9557206E-4,-5.7816178E-2,-8.166321E-3],"split_indices":[15,0,1,14,4,0,0,2,0,14,2,1,7,0,0,10,2,0,10,0,0,0,7,22,28,26,0,0,0,0,0,0,0,0,0,0,0,0,0,0,0,0,0],"split_type":[0,0,0,0,0,0,0,0,0,0,0,0,0,0,0,0,0,0,0,0,0,0,0,0,0,0,0,0,0,0,0,0,0,0,0,0,0,0,0,0,0,0,0],"sum_hessian":[1.1137745E3,3.866536E2,7.271209E2,2.9559583E2,9.105776E1,6.794332E2,4.7687668E1,1.5060481E2,1.4499103E2,2.2105232E1,6.895253E1,5.8734515E2,9.2088066E1,4.5455173E1,2.232494E0,8.476137E1,6.5843445E1,1.350976E2,9.893434E0,1.5237782E1,6.867451E0,1.8097872E0,6.7142746E1,5.6315356E2,2.4191631E1,9.08863E1,1.2017695E0,8.3575096E1,1.1862752E0,3.9238323E1,2.6605118E1,5.359915E0,4.5335183E0,1.23578615E1,2.8799198E0,6.612292E1,1.019824E0,5.5290576E2,1.0247787E1,2.083877E1,3.3528607E0,8.977201E1,1.1142824E0],"tree_param":{"num_deleted":"0","num_feature":"39","num_nodes":"43","size_leaf_vector":"1"}},{"base_weights":[1.8626513E-3,5.9921926E-1,-2.9385352E-1,-5.441762E-1,8.9851063E-1,-3.9398074E-1,1.0805511E0,7.439928E-1,-9.0058106E-1,6.22389E-1,1.2023255E0,-1.1202477E0,-2.8050077E-1,-4.300744E-2,1.2096539E0,-6.309123E-1,5.820151E-2,-7.752347E-2,-9.958364E-1,3.112542E-1,1.0212246E0,1.2273947E0,9.6069515E-2,5.7718656E-3,-5.6942232E-2,-3.5445222E-1,1.151055E0,8.8490425E-3,1.2336376E0,1.0937411E-2,-4.8117865E-2,-2.0399569E-2,4.4815425E-2,-5.3440392E-2,-1.51475845E-2,-9.274128E-3,5.667423E-2,4.1806515E-2,6.2260266E-2,9.380543E-3,6.1961837E-2,-2.5823558E-2,3.1747974E-2,-2.0769006E-2,7.3867954E-2,7.089311E-2,-1.9421084E-2,6.2722825E-2,1.2095972E-2],"categories":[],"categories_nodes":[],"categories_segments":[],"categories_sizes":[],"default_left":[0,0,0,0,0,0,0,0,0,0,0,0,0,0,0,0,0,0,0,0,0,0,0,0,0,0,0,0,0,0,0,0,0,0,0,0,0,0,0,0,0,0,0,0,0,0,0,0,0],"id":22,"left_children":[1,3,5,7,9,11,13,15,17,19,21,23,25,-1,27,29,-1,31,33,35,37,39,41,-1,-1,43,45,-1,47,-1,-1,-1,-1,-1,-1,-1,-1,-1,-1,-1,-1,-1,-1,-1,-1,-1,-1,-1,-1],"loss_changes":[1.92536E2,1.2399292E2,1.0075305E2,3.5329865E1,2.3278519E1,5.5751366E1,1.3510933E1,1.0499106E1,4.59433E0,1.8558472E1,3.6341553E0,2.2363129E0,6.28343E1,0E0,9.4779205E-1,1.5074193E0,0E0,2.7037497E0,2.3721123E0,3.5699604E1,1.7043533E0,1.3954163E0,1.6756675E0,0E0,0E0,6.327887E1,1.2544704E1,0E0,6.431122E-1,0E0,0E0,0E0,0E0,0E0,0E0,0E0,0E0,0E0,0E0,0E0,0E0,0E0,0E0,0E0,0E0,0E0,0E0,0E0,0E0],"parents":[2147483647,0,0,1,1,2,2,3,3,4,4,5,5,6,6,7,7,8,8,9,9,10,10,11,11,12,12,14,14,15,15,17,17,18,18,19,19,20,20,21,21,22,22,25,25,26,26,28,28],"right_children":[2,4,6,8,10,12,14,16,18,20,22,24,26,-1,28,30,-1,32,34,36,38,40,42,-1,-1,44,46,-1,48,-1,-1,-1,-1,-1,-1,-1,-1,-1,-1,-1,-1,-1,-1,-1,-1,-1,-1,-1,-1],"split_conditions":[-9.479445E-1,-9.297141E-1,5.77992E-1,-1.5824118E-1,8.047027E-1,1.0536784E-1,-4.9431223E-1,-6.736973E-1,-1.9885918E-1,1.7099804E-1,-1.05940275E-1,-4.6244523E-1,7.872967E-2,-4.300744E-2,-3.0956355E-1,-2.519557E-1,5.820151E-2,3.0145726E-1,1.3452392E0,2.3397684E0,3.0145726E-1,-7.99491E-1,2.6443335E-1,5.7718656E-3,-5.6942232E-2,2.3397684E0,-2.4055326E-1,8.8490425E-3,7.567973E-1,1.0937411E-2,-4.8117865E-2,-2.0399569E-2,4.4815425E-2,-5.3440392E-2,-1.51475845E-2,-9.274128E-3,5.667423E-2,4.1806515E-2,6.2260266E-2,9.380543E-3,6.1961837E-2,-2.5823558E-2,3.1747974E-2,-2.0769006E-2,7.3867954E-2,7.089311E-2,-1.9421084E-2,6.2722825E-2,1.2095972E-2],"split_indices":[15,8,19,4,21,8,7,7,2,8,2,18,10,0,0,2,0,3,3,5,3,8,14,0,0,5,0,0,14,0,0,0,0,0,0,0,0,0,0,0,0,0,0,0,0,0,0,0,0],"split_type":[0,0,0,0,0,0,0,0,0,0,0,0,0,0,0,0,0,0,0,0,0,0,0,0,0,0,0,0,0,0,0,0,0,0,0,0,0,0,0,0,0,0,0,0,0,0,0,0,0],"sum_hessian":[1.0879447E3,3.5990277E2,7.28042E2,7.449358E1,2.8540918E2,6.792696E2,4.8772354E1,1.5908247E1,5.858534E1,1.5111612E2,1.3429305E2,9.059484E1,5.886748E2,2.6889515E0,4.60834E1,3.605231E0,1.2303017E1,6.2651234E0,5.2320213E1,8.5891716E1,6.522441E1,1.3121016E2,3.0828896E0,1.2660182E0,8.932882E1,5.604741E2,2.8200642E1,1.236177E0,4.4847225E1,1.1071258E0,2.4981053E0,5.111568E0,1.1535549E0,4.6844246E1,5.475967E0,5.4026764E1,3.186495E1,3.830379E1,2.6920618E1,1.6671793E0,1.2954298E2,1.4623175E0,1.6205721E0,5.4318066E2,1.7293488E1,2.4102436E1,4.0982056E0,4.3665627E1,1.1815995E0],"tree_param":{"num_deleted":"0","num_feature":"39","num_nodes":"49","size_leaf_vector":"1"}},{"base_weights":[7.252375E-3,5.748206E-1,-2.9287818E-1,-5.751934E-1,8.546904E-1,-3.9171126E-1,1.0813396E0,1.056594E0,-7.776344E-1,1.0651962E0,4.1392705E-1,-2.8571114E-1,-1.1171964E0,-4.2434644E-2,1.2118013E0,5.8472004E-2,1.3352707E-2,-1.1898109E-1,-9.0889287E-1,8.5394484E-1,1.2052361E0,8.8383384E-2,1.1064351E0,-3.4925884E-1,1.3641078E0,-5.693061E-2,6.0644387E-3,6.181949E-2,7.6072547E-3,-3.412514E-2,6.71429E-2,-5.2230246E-2,-1.3241814E-2,1.9876199E-2,6.0548574E-2,6.165985E-2,-8.274914E-3,-2.4755267E-2,4.2020213E-2,5.9543993E-2,1.2630038E-2,-2.0070449E-2,6.608411E-2,7.3498674E-2,1.9243464E-2],"categories":[],"categories_nodes":[],"categories_segments":[],"categories_sizes":[],"default_left":[0,0,0,0,0,0,0,0,0,0,0,0,0,0,0,0,0,0,0,0,0,0,0,0,0,0,0,0,0,0,0,0,0,0,0,0,0,0,0,0,0,0,0,0,0],"id":23,"left_children":[1,3,5,7,9,11,13,15,17,19,21,23,25,-1,27,-1,-1,29,31,33,35,37,39,41,43,-1,-1,-1,-1,-1,-1,-1,-1,-1,-1,-1,-1,-1,-1,-1,-1,-1,-1,-1,-1],"loss_changes":[1.8459738E2,1.2113197E2,9.6698685E1,2.525454E1,2.7567245E1,5.059169E1,1.3070759E1,4.5277786E-1,5.630287E0,4.995804E0,2.2267387E1,6.1177288E1,2.367447E0,0E0,9.8983765E-1,0E0,0E0,1.0950254E1,4.5477676E0,1.3307613E1,4.8049164E0,3.0504152E1,1.9802246E0,4.918036E1,1.6815224E0,0E0,0E0,0E0,0E0,0E0,0E0,0E0,0E0,0E0,0E0,0E0,0E0,0E0,0E0,0E0,0E0,0E0,0E0,0E0,0E0],"parents":[2147483647,0,0,1,1,2,2,3,3,4,4,5,5,6,6,7,7,8,8,9,9,10,10,11,11,12,12,14,14,17,17,18,18,19,19,20,20,21,21,22,22,23,23,24,24],"right_children":[2,4,6,8,10,12,14,16,18,20,22,24,26,-1,28,-1,-1,30,32,34,36,38,40,42,44,-1,-1,-1,-1,-1,-1,-1,-1,-1,-1,-1,-1,-1,-1,-1,-1,-1,-1,-1,-1],"split_conditions":[-7.967835E-1,-9.7753036E-1,5.77992E-1,-1.2471034E-1,-1.2970021E-1,-2.664875E-1,-4.9431223E-1,-1.4726579E-1,-1.439707E-1,-6.5525854E-1,2.3397684E0,-1.1174039E-1,3.9125385E0,-4.2434644E-2,2.3397684E0,5.8472004E-2,1.3352707E-2,3.9924687E-1,1.2630827E0,3.0145726E-1,-8.590371E-2,1.604972E-1,-8.590371E-2,2.3397684E0,-3.2914183E-1,-5.693061E-2,6.0644387E-3,6.181949E-2,7.6072547E-3,-3.412514E-2,6.71429E-2,-5.2230246E-2,-1.3241814E-2,1.9876199E-2,6.0548574E-2,6.165985E-2,-8.274914E-3,-2.4755267E-2,4.2020213E-2,5.9543993E-2,1.2630038E-2,-2.0070449E-2,6.608411E-2,7.3498674E-2,1.9243464E-2],"split_indices":[15,8,19,6,4,6,7,6,4,7,5,1,26,0,5,0,0,0,21,3,0,8,0,5,28,0,0,0,0,0,0,0,0,0,0,0,0,0,0,0,0,0,0,0,0],"split_type":[0,0,0,0,0,0,0,0,0,0,0,0,0,0,0,0,0,0,0,0,0,0,0,0,0,0,0,0,0,0,0,0,0,0,0,0,0,0,0,0,0,0,0,0,0],"sum_hessian":[1.0816823E3,3.7382928E2,7.0785297E2,7.2962715E1,3.0086658E2,6.6102716E2,4.6825794E1,7.5871105E0,6.53756E1,2.0266049E2,9.820607E1,5.779737E2,8.305349E1,2.6162372E0,4.4209557E1,6.2173243E0,1.3697859E0,1.1180162E1,5.419544E1,8.36188E1,1.19041695E2,6.756964E1,3.063643E1,5.572961E2,2.0677608E1,8.172102E1,1.3324652E0,4.3043972E1,1.1655849E0,8.454264E0,2.7258983E0,4.4249516E1,9.945925E0,3.7628353E1,4.5990444E1,1.1676031E2,2.2813895E0,3.8240604E1,2.9329035E1,2.7519949E1,3.1164827E0,5.41166E2,1.6130047E1,1.8208E1,2.4696083E0],"tree_param":{"num_deleted":"0","num_feature":"39","num_nodes":"45","size_leaf_vector":"1"}},{"base_weights":[5.6823716E-3,5.49685E-1,-2.5889295E-1,8.2138133E-1,-5.414361E-1,-3.4811705E-1,1.058176E0,4.9669355E-1,1.1576598E0,8.543071E-1,-7.3399085E-1,-2.3634714E-1,-1.083529E0,-3.965513E-2,1.1688868E0,9.4377506E-1,1.9920282E-1,6.31409E-2,8.9211357E-1,3.052773E-1,1.1602519E0,-9.841252E-1,2.6512802E-2,-3.0610484E-1,1.2251704E0,3.408597E-2,-1.1164839E0,1.1677099E-2,5.98883E-2,-8.803869E-3,5.401019E-2,-9.52743E-3,5.286785E-2,-3.737193E-2,5.4240286E-2,-3.2391946E-3,3.7535053E-2,8.466802E-3,7.091998E-2,-5.007227E-2,-7.576232E-3,3.5013612E-2,-4.6126273E-2,-1.6890436E-2,1.0426672E-1,6.567722E-2,-2.5122589E-2,-5.687334E-2,1.0661369E-2],"categories":[],"categories_nodes":[],"categories_segments":[],"categories_sizes":[],"default_left":[0,0,0,0,0,0,0,0,0,0,0,0,0,0,0,0,0,0,0,0,0,0,0,0,0,0,0,0,0,0,0,0,0,0,0,0,0,0,0,0,0,0,0,0,0,0,0,0,0],"id":24,"left_children":[1,3,5,7,9,11,13,15,17,19,21,23,25,-1,27,29,31,-1,33,35,37,39,41,43,45,-1,47,-1,-1,-1,-1,-1,-1,-1,-1,-1,-1,-1,-1,-1,-1,-1,-1,-1,-1,-1,-1,-1,-1],"loss_changes":[1.5168E2,1.0266991E2,8.368979E1,2.9612411E1,1.9264997E1,5.4388374E1,1.0197849E1,1.8753529E1,2.6449738E0,1.1356363E0,1.1721157E1,5.934109E1,5.847183E0,0E0,8.84079E-1,8.842697E0,2.922686E1,0E0,1.3991432E1,7.954849E-1,1.1254354E0,5.1578903E-1,1.0998256E1,4.261832E1,4.713211E0,0E0,2.647766E0,0E0,0E0,0E0,0E0,0E0,0E0,0E0,0E0,0E0,0E0,0E0,0E0,0E0,0E0,0E0,0E0,0E0,0E0,0E0,0E0,0E0,0E0],"parents":[2147483647,0,0,1,1,2,2,3,3,4,4,5,5,6,6,7,7,8,8,9,9,10,10,11,11,12,12,14,14,15,15,16,16,18,18,19,19,20,20,21,21,22,22,23,23,24,24,26,26],"right_children":[2,4,6,8,10,12,14,16,18,20,22,24,26,-1,28,30,32,-1,34,36,38,40,42,44,46,-1,48,-1,-1,-1,-1,-1,-1,-1,-1,-1,-1,-1,-1,-1,-1,-1,-1,-1,-1,-1,-1,-1,-1],"split_conditions":[-9.479445E-1,-5.638727E-2,5.77992E-1,-1.1174039E-1,-1.5348436E-1,-2.4070984E-1,-4.9431223E-1,-2.4310628E-1,5.318136E-1,3.0145726E-1,8.2334816E-1,-1.1174039E-1,-1.740865E-1,-3.965513E-2,9.399966E-1,-6.79929E-1,-6.611788E-2,6.31409E-2,-5.2945614E-1,2.680102E-2,-2.077086E-1,1.7159483E0,5.777399E-2,3.0759943E-1,-2.5759795E-1,3.408597E-2,2.9106493E0,1.1677099E-2,5.98883E-2,-8.803869E-3,5.401019E-2,-9.52743E-3,5.286785E-2,-3.737193E-2,5.4240286E-2,-3.2391946E-3,3.7535053E-2,8.466802E-3,7.091998E-2,-5.007227E-2,-7.576232E-3,3.5013612E-2,-4.6126273E-2,-1.6890436E-2,1.0426672E-1,6.567722E-2,-2.5122589E-2,-5.687334E-2,1.0661369E-2],"split_indices":[15,0,19,1,4,6,7,2,10,3,3,1,13,0,18,7,2,0,18,2,2,4,2,23,0,0,26,0,0,0,0,0,0,0,0,0,0,0,0,0,0,0,0,0,0,0,0,0,0],"split_type":[0,0,0,0,0,0,0,0,0,0,0,0,0,0,0,0,0,0,0,0,0,0,0,0,0,0,0,0,0,0,0,0,0,0,0,0,0,0,0,0,0,0,0,0,0,0,0,0,0],"sum_hessian":[1.0518593E3,3.4382693E2,7.080323E2,2.7547824E2,6.834869E1,6.6379926E2,4.423302E1,1.4141475E2,1.340635E2,7.869502E0,6.0479187E1,5.773703E2,8.6428925E1,2.148167E0,4.2084854E1,5.5633682E1,8.578107E1,9.334334E1,4.0720173E1,3.5309296E0,4.3385725E0,4.5289234E1,1.5189953E1,5.518226E2,2.5547731E1,1.2231613E0,8.5205765E1,1.5326256E0,4.0552227E1,6.010107E0,4.9623573E1,5.952452E1,2.6256544E1,3.979661E0,3.674051E1,2.3953843E0,1.1355454E0,1.2389094E0,3.0996633E0,4.416764E1,1.1215911E0,9.036624E0,6.1533294E0,5.454502E2,6.372427E0,2.453249E1,1.0152407E0,8.402444E1,1.1813279E0],"tree_param":{"num_deleted":"0","num_feature":"39","num_nodes":"49","size_leaf_vector":"1"}},{"base_weights":[1.7897999E-2,5.527264E-1,-2.5627857E-1,-4.9955124E-1,8.331331E-1,-3.5030064E-1,1.0585726E0,5.923233E-1,-7.9625744E-1,1.0419416E0,5.120536E-1,-2.44527E-1,-1.0992024E0,-4.1474182E-2,1.1880558E0,-5.593478E-1,1.015861E0,-9.731666E-1,-2.322161E-1,5.821079E-1,1.1149465E0,2.3797719E-1,1.1236862E0,-3.0974495E-1,1.3055027E0,-5.609245E-2,1.4349136E-2,1.6803917E-2,6.004507E-2,3.2390952E-2,-5.1164478E-2,1.2338276E-2,5.366363E-2,-5.44599E-2,-2.6833028E-2,1.0653178E-1,-4.4524528E-2,-2.9029192E-3,5.2624848E-2,4.8021495E-2,6.363943E-2,4.8763245E-2,-1.6099656E-2,6.00482E-2,1.197992E-2,-1.8009981E-2,6.45644E-2,7.0411764E-2,2.0175925E-2],"categories":[],"categories_nodes":[],"categories_segments":[],"categories_sizes":[],"default_left":[0,0,0,0,0,0,0,0,0,0,0,0,0,0,0,0,0,0,0,0,0,0,0,0,0,0,0,0,0,0,0,0,0,0,0,0,0,0,0,0,0,0,0,0,0,0,0,0,0],"id":25,"left_children":[1,3,5,7,9,11,13,15,17,19,21,23,25,-1,27,29,31,33,35,37,39,41,43,45,47,-1,-1,-1,-1,-1,-1,-1,-1,-1,-1,-1,-1,-1,-1,-1,-1,-1,-1,-1,-1,-1,-1,-1,-1],"loss_changes":[1.522335E2,1.0422884E2,8.522307E1,2.4656536E1,1.8116562E1,5.0532295E1,1.2244316E1,8.628667E0,5.674019E0,4.9770355E0,1.8438026E1,5.7341354E1,2.8045273E0,0E0,7.2582245E-2,3.512507E0,2.8429985E-1,1.679306E0,2.5898317E1,7.6056623E0,2.2783356E0,3.2651E1,2.0529404E0,4.4191006E1,1.5568008E0,0E0,0E0,0E0,0E0,0E0,0E0,0E0,0E0,0E0,0E0,0E0,0E0,0E0,0E0,0E0,0E0,0E0,0E0,0E0,0E0,0E0,0E0,0E0,0E0],"parents":[2147483647,0,0,1,1,2,2,3,3,4,4,5,5,6,6,7,7,8,8,9,9,10,10,11,11,12,12,14,14,15,15,16,16,17,17,18,18,19,19,20,20,21,21,22,22,23,23,24,24],"right_children":[2,4,6,8,10,12,14,16,18,20,22,24,26,-1,28,30,32,34,36,38,40,42,44,46,48,-1,-1,-1,-1,-1,-1,-1,-1,-1,-1,-1,-1,-1,-1,-1,-1,-1,-1,-1,-1,-1,-1,-1,-1],"split_conditions":[-7.967835E-1,-9.1058755E-1,5.77992E-1,-1.5348436E-1,-1.439707E-1,-2.664875E-1,-5.174587E-1,-6.723042E-1,-5.77321E-1,-5.1631033E-1,2.3397684E0,-1.1174039E-1,2.9106493E0,-4.1474182E-2,9.399966E-1,-1.4082138E-1,-6.691313E-1,-6.476575E-1,-2.8531185E-1,-6.6304743E-1,3.0145726E-1,-2.3425686E-1,-6.6161644E-1,2.3397684E0,-3.2914183E-1,-5.609245E-2,1.4349136E-2,1.6803917E-2,6.004507E-2,3.2390952E-2,-5.1164478E-2,1.2338276E-2,5.366363E-2,-5.44599E-2,-2.6833028E-2,1.0653178E-1,-4.4524528E-2,-2.9029192E-3,5.2624848E-2,4.8021495E-2,6.363943E-2,4.8763245E-2,-1.6099656E-2,6.00482E-2,1.197992E-2,-1.8009981E-2,6.45644E-2,7.0411764E-2,2.0175925E-2],"split_indices":[15,8,19,4,4,6,7,7,18,8,5,1,26,0,18,6,7,7,13,7,3,2,7,5,28,0,0,0,0,0,0,0,0,0,0,0,0,0,0,0,0,0,0,0,0,0,0,0,0],"split_type":[0,0,0,0,0,0,0,0,0,0,0,0,0,0,0,0,0,0,0,0,0,0,0,0,0,0,0,0,0,0,0,0,0,0,0,0,0,0,0,0,0,0,0,0,0,0,0,0,0],"sum_hessian":[1.0361969E3,3.5082892E2,6.853679E2,7.365258E1,2.7717633E2,6.403141E2,4.505385E1,1.5524889E1,5.812769E1,1.665914E2,1.1058493E2,5.622319E2,7.8082184E1,2.544541E0,4.2509308E1,4.0880713E0,1.1436817E1,4.3696976E1,1.4430715E1,2.4054386E1,1.4253702E2,7.732445E1,3.3260487E1,5.402988E2,2.1933065E1,7.701466E1,1.0675204E0,1.0348746E0,4.1474434E1,1.0249183E0,3.063153E0,1.1624606E0,1.0274357E1,3.3339466E1,1.0357509E1,2.6569593E0,1.1773755E1,1.0559806E1,1.349458E1,7.5607376E1,6.692964E1,3.3057495E1,4.426695E1,3.0257284E1,3.0032036E0,5.245435E2,1.5755344E1,1.9186531E1,2.7465355E0],"tree_param":{"num_deleted":"0","num_feature":"39","num_nodes":"49","size_leaf_vector":"1"}},{"base_weights":[-3.6551757E-3,3.9146313E-1,-3.4184688E-1,1.375409E-1,1.025205E0,-4.5118207E-1,9.933486E-1,-7.988758E-1,3.042559E-1,1.1369529E0,-4.8481688E-1,-5.3242546E-1,8.063274E-1,-4.1091144E-2,1.1216984E0,1.9908825E-1,-5.2297156E-2,1.5409103E-1,1.0747268E0,1.2028335E0,7.3686254E-1,-7.332849E-1,4.0633317E-2,-2.8525403E-1,-8.444127E-1,-6.6898465E-1,9.9562335E-1,7.584519E-3,5.83404E-2,-4.9790755E-2,4.323174E-2,-1.7675845E-2,2.4335248E-2,1.23137794E-1,2.1924837E-2,6.254943E-2,2.0119293E-2,5.558572E-2,-7.611306E-2,1.151426E-2,-4.6102565E-2,-1.793742E-2,5.3421665E-2,-4.7077473E-2,4.52853E-2,-4.2214375E-2,-3.2295033E-3,7.379748E-2,3.0157486E-2],"categories":[],"categories_nodes":[],"categories_segments":[],"categories_sizes":[],"default_left":[0,0,0,0,0,0,0,0,0,0,0,0,0,0,0,0,0,0,0,0,0,0,0,0,0,0,0,0,0,0,0,0,0,0,0,0,0,0,0,0,0,0,0,0,0,0,0,0,0],"id":26,"left_children":[1,3,5,7,9,11,13,15,17,19,21,23,25,-1,27,29,-1,31,33,35,37,39,-1,41,43,45,47,-1,-1,-1,-1,-1,-1,-1,-1,-1,-1,-1,-1,-1,-1,-1,-1,-1,-1,-1,-1,-1,-1],"loss_changes":[1.3594421E2,7.53618E1,8.0470345E1,5.2718044E1,2.317279E1,5.2262985E1,1.0660717E1,1.2801483E1,3.2930412E1,2.4116516E0,3.79991E0,3.655568E1,9.375679E0,0E0,1.5498238E0,9.589458E0,0E0,4.0788418E1,3.9976753E1,3.5766907E0,1.8858997E1,1.8251166E0,0E0,2.7021368E1,3.6624054E1,3.8460064E-1,4.396204E0,0E0,0E0,0E0,0E0,0E0,0E0,0E0,0E0,0E0,0E0,0E0,0E0,0E0,0E0,0E0,0E0,0E0,0E0,0E0,0E0,0E0,0E0],"parents":[2147483647,0,0,1,1,2,2,3,3,4,4,5,5,6,6,7,7,8,8,9,9,10,10,11,11,12,12,14,14,15,15,17,17,18,18,19,19,20,20,21,21,23,23,24,24,25,25,26,26],"right_children":[2,4,6,8,10,12,14,16,18,20,22,24,26,-1,28,30,-1,32,34,36,38,40,-1,42,44,46,48,-1,-1,-1,-1,-1,-1,-1,-1,-1,-1,-1,-1,-1,-1,-1,-1,-1,-1,-1,-1,-1,-1],"split_conditions":[-2.675341E-1,1.271802E0,5.77992E-1,-9.7753036E-1,-7.737513E-2,2.1668208E0,-5.174587E-1,-1.4872752E-1,-3.6328334E-1,1.65783E0,-5.972438E-1,-1.3921387E-1,2.9266736E-1,-4.1091144E-2,1.3036218E0,-6.7001486E-1,-5.2297156E-2,-3.2126504E-1,-6.030986E-1,-1.740865E-1,-2.6050803E-1,-5.105398E-1,4.0633317E-2,2.3397684E0,9.7044253E-1,1.6484723E0,7.489395E-1,7.584519E-3,5.83404E-2,-4.9790755E-2,4.323174E-2,-1.7675845E-2,2.4335248E-2,1.23137794E-1,2.1924837E-2,6.254943E-2,2.0119293E-2,5.558572E-2,-7.611306E-2,1.151426E-2,-4.6102565E-2,-1.793742E-2,5.3421665E-2,-4.7077473E-2,4.52853E-2,-4.2214375E-2,-3.2295033E-3,7.379748E-2,3.0157486E-2],"split_indices":[9,21,19,8,4,17,7,4,17,28,7,4,7,0,13,7,0,6,13,13,0,9,0,5,14,9,13,0,0,0,0,0,0,0,0,0,0,0,0,0,0,0,0,0,0,0,0,0,0],"split_type":[0,0,0,0,0,0,0,0,0,0,0,0,0,0,0,0,0,0,0,0,0,0,0,0,0,0,0,0,0,0,0,0,0,0,0,0,0,0,0,0,0,0,0,0,0,0,0,0,0],"sum_hessian":[1.0153491E3,4.681913E2,5.471578E2,3.3513098E2,1.3306035E2,5.063559E2,4.0801884E1,5.0074886E1,2.850561E2,1.2412188E2,8.938471E0,4.7616885E2,3.0187037E1,2.3377376E0,3.8464146E1,9.975532E0,4.0099354E1,2.3956487E2,4.5491222E1,1.0485035E2,1.927153E1,7.8668165E0,1.0716546E0,2.6675052E2,2.0941835E2,3.144641E0,2.7042395E1,1.9031293E0,3.6561016E1,3.391068E0,6.5844636E0,9.4810326E1,1.4475453E2,1.3395695E1,3.2095528E1,9.836957E1,6.480782E0,1.6964539E1,2.3069918E0,1.2526478E0,6.6141686E0,2.5371101E2,1.3039491E1,1.9884393E2,1.0574413E1,2.129943E0,1.0146979E0,1.0918828E1,1.6123568E1],"tree_param":{"num_deleted":"0","num_feature":"39","num_nodes":"49","size_leaf_vector":"1"}},{"base_weights":[1.1952436E-2,5.065853E-1,-2.369722E-1,9.6541965E-1,-8.179372E-2,-3.208966E-1,1.0227159E0,7.07728E-1,5.8899123E-2,-4.5104128E-1,6.218616E-1,-2.1604101E-1,-1.0960977E0,-3.7290614E-2,1.1224873E0,4.3877524E-1,1.1432539E0,-7.734993E-1,3.5526413E-1,-4.9076012E-1,1.0461514E0,-2.8859943E-1,8.8422495E-1,-5.5404246E-2,-7.256103E-3,1.1630449E0,-1.7768966E-3,-9.753728E-3,5.4463327E-2,5.93097E-2,1.4190706E-2,-5.3319592E-2,3.3808392E-4,4.865202E-2,-4.6524204E-2,2.7132168E-2,-3.7384745E-2,5.3795297E-2,1.2348349E-3,1.1745562E-1,-1.5922828E-2,6.267435E-2,2.3771556E-2,1.6294643E-2,5.889361E-2],"categories":[],"categories_nodes":[],"categories_segments":[],"categories_sizes":[],"default_left":[0,0,0,0,0,0,0,0,0,0,0,0,0,0,0,0,0,0,0,0,0,0,0,0,0,0,0,0,0,0,0,0,0,0,0,0,0,0,0,0,0,0,0,0,0],"id":27,"left_children":[1,3,5,7,9,11,13,15,-1,17,19,21,23,-1,25,27,29,31,33,35,37,39,41,-1,-1,43,-1,-1,-1,-1,-1,-1,-1,-1,-1,-1,-1,-1,-1,-1,-1,-1,-1,-1,-1],"loss_changes":[1.2469265E2,9.1605385E1,7.1552895E1,9.604401E0,3.911507E1,5.1167267E1,8.304562E0,9.881485E0,0E0,2.5912186E1,2.499521E1,4.482601E1,6.9532776E-1,0E0,1.941597E0,2.3476574E1,8.892479E-1,1.617617E1,2.3824467E1,4.3878317E0,1.1241837E0,4.2055702E1,4.655052E0,0E0,0E0,1.0172653E-1,0E0,0E0,0E0,0E0,0E0,0E0,0E0,0E0,0E0,0E0,0E0,0E0,0E0,0E0,0E0,0E0,0E0,0E0,0E0],"parents":[2147483647,0,0,1,1,2,2,3,3,4,4,5,5,6,6,7,7,9,9,10,10,11,11,12,12,14,14,15,15,16,16,17,17,18,18,19,19,20,20,21,21,22,22,25,25],"right_children":[2,4,6,8,10,12,14,16,-1,18,20,22,24,-1,26,28,30,32,34,36,38,40,42,-1,-1,44,-1,-1,-1,-1,-1,-1,-1,-1,-1,-1,-1,-1,-1,-1,-1,-1,-1,-1,-1],"split_conditions":[-7.967835E-1,-1.4082138E-1,5.77992E-1,1.1564028E-2,2.3397684E0,-2.664875E-1,-1.0572242E0,3.0145726E-1,5.8899123E-2,1.271802E0,-9.7753036E-1,-8.688878E-2,3.9125385E0,-3.7290614E-2,1.1098111E0,-1.6659905E-1,-1.6982126E-1,3.0145726E-1,-1.740865E-1,-1.4872752E-1,-2.1870788E-2,-8.8365644E-1,-2.6522982E-1,-5.5404246E-2,-7.256103E-3,6.4629143E-1,-1.7768966E-3,-9.753728E-3,5.4463327E-2,5.93097E-2,1.4190706E-2,-5.3319592E-2,3.3808392E-4,4.865202E-2,-4.6524204E-2,2.7132168E-2,-3.7384745E-2,5.3795297E-2,1.2348349E-3,1.1745562E-1,-1.5922828E-2,6.267435E-2,2.3771556E-2,1.6294643E-2,5.889361E-2],"split_indices":[15,6,19,14,5,6,8,3,0,21,8,4,26,0,16,6,6,3,13,4,2,18,2,0,0,16,0,0,0,0,0,0,0,0,0,0,0,0,0,0,0,0,0,0,0],"split_type":[0,0,0,0,0,0,0,0,0,0,0,0,0,0,0,0,0,0,0,0,0,0,0,0,0,0,0,0,0,0,0,0,0,0,0,0,0,0,0,0,0,0,0,0,0],"sum_hessian":[1.01074634E3,3.380263E2,6.7272003E2,1.8956076E2,1.4846556E2,6.313995E2,4.1320564E1,8.764163E1,1.0191913E2,9.760548E1,5.086009E1,5.572969E2,7.410262E1,1.8608192E0,3.9459747E1,5.5423256E1,3.221838E1,6.975122E1,2.7854256E1,1.399752E1,3.6862568E1,5.23511E2,3.3785885E1,7.301702E1,1.0856007E0,3.812032E1,1.3394285E0,2.8425285E1,2.6997969E1,3.0323154E1,1.8952246E0,5.0447605E1,1.9303614E1,1.897862E1,8.875636E0,2.5657928E0,1.1431728E1,3.5767376E1,1.0951922E0,4.9900427E0,5.1852094E2,1.6665602E1,1.7120285E1,1.0633354E0,3.7056984E1],"tree_param":{"num_deleted":"0","num_feature":"39","num_nodes":"45","size_leaf_vector":"1"}},{"base_weights":[-3.0200914E-3,5.01835E-1,-2.4469343E-1,-4.5110103E-1,7.571992E-1,-3.2224655E-1,9.900878E-1,5.876898E-1,-7.902072E-1,4.905523E-1,1.0718942E0,2.399307E-1,-4.562367E-1,1.141161E0,-5.394899E-1,5.051129E-2,8.309949E-2,-9.8598313E-1,5.9960745E-2,2.0050299E-1,8.927302E-1,1.1455138E0,5.299197E-1,-1.6813824E-1,7.980567E-1,-5.349128E-1,6.783058E-1,1.4598387E-2,5.7921525E-2,9.825222E-3,-4.1561004E-2,-2.9671464E-2,6.1568208E-2,-5.6011744E-2,-2.469022E-2,8.9777224E-2,-3.4031935E-2,-1.1503555E-2,4.9034644E-2,3.578488E-2,5.6242984E-2,-2.3949705E-3,5.8194917E-2,5.1711835E-2,-7.1874455E-2,-3.917723E-2,1.8680269E-2,1.1762091E-1,1.0252143E-2,-1.5500751E-2,-4.4352952E-2,-3.5772227E-2,4.1323673E-2],"categories":[],"categories_nodes":[],"categories_segments":[],"categories_sizes":[],"default_left":[0,0,0,0,0,0,0,0,0,0,0,0,0,0,0,0,0,0,0,0,0,0,0,0,0,0,0,0,0,0,0,0,0,0,0,0,0,0,0,0,0,0,0,0,0,0,0,0,0,0,0,0,0],"id":28,"left_children":[1,3,5,7,9,11,13,15,17,19,21,23,25,27,29,-1,31,33,35,37,39,41,43,45,47,49,51,-1,-1,-1,-1,-1,-1,-1,-1,-1,-1,-1,-1,-1,-1,-1,-1,-1,-1,-1,-1,-1,-1,-1,-1,-1,-1],"loss_changes":[1.2005404E2,7.785735E1,6.404048E1,2.4399723E1,2.058603E1,4.7327827E1,9.759163E0,3.603631E0,8.656212E0,1.5923328E1,3.963745E0,2.776174E1,4.5577934E1,1.946106E-1,1.0728229E0,0E0,7.7005796E0,2.2247467E0,1.4860844E1,2.760002E1,1.559906E0,2.2496948E0,1.6926006E1,2.3929565E1,4.6901997E1,3.72847E1,7.465975E0,0E0,0E0,0E0,0E0,0E0,0E0,0E0,0E0,0E0,0E0,0E0,0E0,0E0,0E0,0E0,0E0,0E0,0E0,0E0,0E0,0E0,0E0,0E0,0E0,0E0,0E0],"parents":[2147483647,0,0,1,1,2,2,3,3,4,4,5,5,6,6,7,7,8,8,9,9,10,10,11,11,12,12,13,13,14,14,16,16,17,17,18,18,19,19,20,20,21,21,22,22,23,23,24,24,25,25,26,26],"right_children":[2,4,6,8,10,12,14,16,18,20,22,24,26,28,30,-1,32,34,36,38,40,42,44,46,48,50,52,-1,-1,-1,-1,-1,-1,-1,-1,-1,-1,-1,-1,-1,-1,-1,-1,-1,-1,-1,-1,-1,-1,-1,-1,-1,-1],"split_conditions":[-9.479445E-1,-9.1058755E-1,5.77992E-1,-1.5348436E-1,8.047027E-1,-3.0927753E-1,2.3397684E0,-1.05377086E-1,1.2630827E0,1.7099804E-1,-3.2914183E-1,-3.6328334E-1,2.0226767E0,6.09517E-1,-3.4488503E-2,5.051129E-2,6.582863E-1,2.3397684E0,-2.8531185E-1,2.3397684E0,3.0145726E-1,-8.320026E-1,-2.6004308E-1,-6.030986E-1,-6.030986E-1,-1.3921387E-1,-3.0551016E-1,1.4598387E-2,5.7921525E-2,9.825222E-3,-4.1561004E-2,-2.9671464E-2,6.1568208E-2,-5.6011744E-2,-2.469022E-2,8.9777224E-2,-3.4031935E-2,-1.1503555E-2,4.9034644E-2,3.578488E-2,5.6242984E-2,-2.3949705E-3,5.8194917E-2,5.1711835E-2,-7.1874455E-2,-3.917723E-2,1.8680269E-2,1.1762091E-1,1.0252143E-2,-1.5500751E-2,-4.4352952E-2,-3.5772227E-2,4.1323673E-2],"split_indices":[15,8,19,4,21,18,5,6,21,8,28,17,17,14,6,0,6,5,13,5,3,8,6,13,13,4,15,0,0,0,0,0,0,0,0,0,0,0,0,0,0,0,0,0,0,0,0,0,0,0,0,0,0],"split_type":[0,0,0,0,0,0,0,0,0,0,0,0,0,0,0,0,0,0,0,0,0,0,0,0,0,0,0,0,0,0,0,0,0,0,0,0,0,0,0,0,0,0,0,0,0,0,0,0,0,0,0,0,0],"sum_hessian":[9.819623E2,3.1754175E2,6.6442053E2,6.6947815E1,2.5059393E2,6.258516E2,3.856895E1,1.6295729E1,5.065209E1,1.3703795E2,1.13555984E2,1.2030441E2,5.0554718E2,3.533311E1,3.2358391E0,8.323603E0,7.9721255E0,4.104137E1,9.610722E0,8.048848E1,5.6549473E1,9.899527E1,1.4560715E1,6.989791E1,5.0406498E1,4.7325717E2,3.2290028E1,1.0611203E0,3.4271988E1,1.0111828E0,2.224656E0,5.3205724E0,2.6515532E0,3.1243105E1,9.7982645E0,2.4484253E0,7.162296E0,5.2319374E1,2.8169102E1,3.4398666E1,2.2150808E1,1.4775306E0,9.751774E1,1.1967367E1,2.593347E0,3.2515186E1,3.738273E1,1.3100806E1,3.7305695E1,2.8995688E2,1.833003E2,2.7349439E0,2.9555082E1],"tree_param":{"num_deleted":"0","num_feature":"39","num_nodes":"53","size_leaf_vector":"1"}},{"base_weights":[2.1534283E-3,5.136506E-1,-2.3234022E-1,-3.871017E-1,7.455573E-1,-2.9768446E-1,1.0194876E0,4.6700677E-1,-7.691157E-1,4.761071E-1,1.0760514E0,-5.504452E-2,-2.0134942E-1,5.688676E-2,-3.5334807E-2,-6.817372E-1,9.1933656E-1,-9.365838E-1,-3.3389E-2,2.647652E-1,9.2252433E-1,5.942237E-2,7.6454914E-1,2.014659E-1,-3.730593E-1,-5.4825228E-2,3.1034518E-2,6.749696E-2,3.1389307E-2,-5.264905E-2,-1.5317452E-2,9.722684E-2,-4.5590937E-2,4.215565E-2,-6.4824224E-3,-4.808296E-2,5.072821E-2,-8.7316066E-2,5.214555E-2,-4.7314162E-3,4.283611E-2,-2.2356005E-2,6.837597E-2],"categories":[],"categories_nodes":[],"categories_segments":[],"categories_sizes":[],"default_left":[0,0,0,0,0,0,0,0,0,0,0,0,0,0,0,0,0,0,0,0,0,0,0,0,0,0,0,0,0,0,0,0,0,0,0,0,0,0,0,0,0,0,0],"id":29,"left_children":[1,3,5,7,9,11,13,15,17,19,21,-1,23,-1,-1,25,27,29,31,33,35,-1,37,39,41,-1,-1,-1,-1,-1,-1,-1,-1,-1,-1,-1,-1,-1,-1,-1,-1,-1,-1],"loss_changes":[1.157733E2,6.3668076E1,5.444122E1,2.084314E1,2.1005234E1,4.850824E1,7.551979E0,1.1031374E1,5.3599567E0,1.2483242E1,2.863121E0,0E0,3.90546E1,0E0,0E0,4.0467534E0,1.0096254E0,2.2893906E0,1.7671122E1,2.131409E1,8.422672E0,0E0,2.3745098E1,3.2885525E1,5.15913E1,0E0,0E0,0E0,0E0,0E0,0E0,0E0,0E0,0E0,0E0,0E0,0E0,0E0,0E0,0E0,0E0,0E0,0E0],"parents":[2147483647,0,0,1,1,2,2,3,3,4,4,5,5,6,6,7,7,8,8,9,9,10,10,12,12,15,15,16,16,17,17,18,18,19,19,20,20,22,22,23,23,24,24],"right_children":[2,4,6,8,10,12,14,16,18,20,22,-1,24,-1,-1,26,28,30,32,34,36,-1,38,40,42,-1,-1,-1,-1,-1,-1,-1,-1,-1,-1,-1,-1,-1,-1,-1,-1,-1,-1],"split_conditions":[-9.479445E-1,-9.1058755E-1,3.6271634E0,-1.439707E-1,8.047027E-1,-2.2278313E-1,1.4368954E0,-6.723042E-1,1.2630827E0,3.0145726E-1,5.318136E-1,-5.504452E-2,6.1202783E-2,5.688676E-2,-3.5334807E-2,-5.105398E-1,-1.6585002E0,8.2334816E-1,-2.8531185E-1,-2.4310628E-1,-7.849958E-1,5.942237E-2,-5.2945614E-1,-3.1966087E-1,2.3397684E0,-5.4825228E-2,3.1034518E-2,6.749696E-2,3.1389307E-2,-5.264905E-2,-1.5317452E-2,9.722684E-2,-4.5590937E-2,4.215565E-2,-6.4824224E-3,-4.808296E-2,5.072821E-2,-8.7316066E-2,5.214555E-2,-4.7314162E-3,4.283611E-2,-2.2356005E-2,6.837597E-2],"split_indices":[15,8,1,4,21,8,0,7,21,3,10,0,7,0,0,9,8,3,13,2,8,0,18,17,5,0,0,0,0,0,0,0,0,0,0,0,0,0,0,0,0,0,0],"split_type":[0,0,0,0,0,0,0,0,0,0,0,0,0,0,0,0,0,0,0,0,0,0,0,0,0,0,0,0,0,0,0,0,0,0,0,0,0,0,0,0,0,0,0],"sum_hessian":[9.632424E2,3.0240997E2,6.608324E2,6.1780037E1,2.4062994E2,6.2877325E2,3.2059185E1,1.9023878E1,4.2756157E1,1.3390137E2,1.0672857E2,6.6220825E1,5.625524E2,3.0322891E1,1.7362928E0,5.2312765E0,1.3792603E1,3.4606033E1,8.1501255E0,9.195929E1,4.194208E1,7.636087E1,3.0367699E1,1.6807974E2,3.9447266E2,4.087644E0,1.1436324E0,4.102801E0,9.689801E0,2.8644875E1,5.961159E0,2.13321E0,6.016916E0,3.682434E1,5.513495E1,1.5133526E0,4.042873E1,2.5043623E0,2.7863337E1,1.1635663E2,5.1723114E1,3.7908585E2,1.5386805E1],"tree_param":{"num_deleted":"0","num_feature":"39","num_nodes":"43","size_leaf_vector":"1"}},{"base_weights":[4.5451587E-3,3.4578773E-1,-2.9049924E-1,1.309746E-1,9.4725305E-1,-3.8922733E-1,9.62564E-1,2.6127723E-1,-6.5504545E-1,1.0670953E0,-4.1392168E-1,-4.6244964E-1,7.595179E-1,-4.040837E-2,1.1007507E0,5.2921695E-1,-1.5140676E-2,6.276283E-2,-7.6162976E-1,1.0949434E0,-4.203298E-2,-7.552203E-1,3.3872575E-1,-4.9308258E-1,1.7205003E0,-4.8155513E-1,1.0813795E0,7.020256E-3,5.6782212E-2,2.042869E-2,1.0925408E-1,-1.26085775E-2,1.6964706E-2,-4.2025667E-2,-3.6579364E-3,5.9730988E-2,4.073776E-2,1.5277951E-2,-4.981139E-2,-2.8604908E-2,4.3104894E-2,-2.6180252E-2,6.967736E-2,9.723792E-2,1.34090725E-2,2.5049416E-2,-4.1940536E-2,5.8833778E-2,-1.8466532E-2],"categories":[],"categories_nodes":[],"categories_segments":[],"categories_sizes":[],"default_left":[0,0,0,0,0,0,0,0,0,0,0,0,0,0,0,0,0,0,0,0,0,0,0,0,0,0,0,0,0,0,0,0,0,0,0,0,0,0,0,0,0,0,0,0,0,0,0,0,0],"id":30,"left_children":[1,3,5,7,9,11,13,15,17,19,21,23,25,-1,27,29,31,-1,33,35,-1,37,39,41,43,45,47,-1,-1,-1,-1,-1,-1,-1,-1,-1,-1,-1,-1,-1,-1,-1,-1,-1,-1,-1,-1,-1,-1],"loss_changes":[9.720618E1,5.7717907E1,6.443276E1,3.407553E1,1.9633957E1,4.0784134E1,1.0213642E1,2.1091843E1,1.0598587E1,6.6801147E0,2.8864565E0,3.1107811E1,1.2177748E1,0E0,1.0392075E0,2.7990032E1,1.1938964E1,0E0,2.4083786E0,2.0229797E0,0E0,2.1848707E0,2.3453693E0,2.6471443E1,1.590538E0,2.7726004E0,3.6807308E0,0E0,0E0,0E0,0E0,0E0,0E0,0E0,0E0,0E0,0E0,0E0,0E0,0E0,0E0,0E0,0E0,0E0,0E0,0E0,0E0,0E0,0E0],"parents":[2147483647,0,0,1,1,2,2,3,3,4,4,5,5,6,6,7,7,8,8,9,9,10,10,11,11,12,12,14,14,15,15,16,16,18,18,19,19,21,21,22,22,23,23,24,24,25,25,26,26],"right_children":[2,4,6,8,10,12,14,16,18,20,22,24,26,-1,28,30,32,-1,34,36,-1,38,40,42,44,46,48,-1,-1,-1,-1,-1,-1,-1,-1,-1,-1,-1,-1,-1,-1,-1,-1,-1,-1,-1,-1,-1,-1],"split_conditions":[-2.675341E-1,1.271802E0,5.77992E-1,3.640008E-2,-2.5623651E-2,9.1389513E-1,-4.9431223E-1,-7.6878065E-1,-7.02416E-1,-3.8958006E-2,2.3397684E0,1.3740395E1,1.1458157E0,-4.040837E-2,6.09517E-1,-4.3065944E-1,2.6199606E-1,6.276283E-2,1.3452392E0,1.0555915E0,-4.203298E-2,5.318136E-1,2.5439325E-1,1.1594997E1,-2.6965454E-1,3.5820627E-1,-6.345459E-2,7.020256E-3,5.6782212E-2,2.042869E-2,1.0925408E-1,-1.26085775E-2,1.6964706E-2,-4.2025667E-2,-3.6579364E-3,5.9730988E-2,4.073776E-2,